the 0.011255 0.21757 -0.23613 -0.27257 -0.13764 0.026814 -0.18215 0.19103 0.076289 0.14334 -0.075055 0.086841 -0.066041 -0.05714 0.0066368 0.048687 -0.15108 0.053599 0.035694 -0.03369 0.019584 0.089207 -0.14083 -0.066677 -0.081502 -0.15498 0.16809 0.041176 -0.11705 0.15497 -0.10753 0.10036 0.079197 -0.10186 -0.13749 -0.14301 0.088154 -0.25427 -0.11519 -0.033136 0.035937 -0.10023 0.094994 0.15854 0.14034 -0.1729 0.012661 -0.01587 -0.14202 0.022105 -0.12527 -0.21439 -0.14447 0.15023 -0.016453 0.042675 0.014497 0.31703 0.14672 0.085639 0.24688 0.17095 0.11197 0.13205 0.10208 -0.025844 -0.05075 0.13144 0.10273 -0.22604 -0.075836 0.042787 0.0064393 -0.12812 -0.06171 0.016793 0.14087 0.087012 0.094088 0.039109 -0.018286 0.085498 0.21651 0.047957 0.09248 -0.099741 0.067954 0.12898 -0.16003 0.12478 0.088344 -0.13439 0.29276 -0.16247 -0.2819 -0.18652 -0.23699 -0.015307 -0.06035 -0.089203 
of 0.027457 0.22258 -0.21492 -0.28241 -0.13146 0.018298 -0.19467 0.22641 0.071975 0.1311 -0.10198 0.076822 -0.079524 -0.047979 -0.00027219 0.015634 -0.12001 0.052345 0.053154 -0.035554 0.021331 0.11467 -0.13697 -0.068181 -0.11188 -0.16769 0.17467 0.051803 -0.12699 0.13711 -0.097531 0.11491 0.081076 -0.11649 -0.12303 -0.15534 0.071258 -0.22838 -0.12615 -0.018487 0.0093547 -0.068548 0.063343 0.16917 0.16759 -0.17755 0.030399 -0.022573 -0.13766 0.043673 -0.11039 -0.22656 -0.14597 0.15126 -0.040737 0.046525 0.015324 0.30772 0.16604 0.092794 0.26829 0.16247 0.11473 0.13611 0.11153 -0.0092618 -0.052203 0.11808 0.11011 -0.24284 -0.038395 0.036017 0.0313 -0.14904 -0.084178 0.014935 0.10884 0.072844 0.10975 0.031605 -0.0081935 0.066625 0.1925 0.055919 0.11435 -0.074613 0.039782 0.12646 -0.15737 0.1465 0.079719 -0.13505 0.2816 -0.15256 -0.26316 -0.16458 -0.24601 -0.012312 -0.071305 -0.092455 
and 0.034892 0.2166 -0.22422 -0.26894 -0.13754 0.031155 -0.19518 0.19255 0.08393 0.15051 -0.089512 0.092654 -0.076929 -0.060644 -0.0095103 0.043324 -0.13071 0.042309 0.045697 -0.020189 0.035881 0.090822 -0.16833 -0.074414 -0.09706 -0.1557 0.19808 0.039653 -0.12816 0.15308 -0.094153 0.10921 0.084264 -0.10523 -0.12995 -0.14906 0.070149 -0.22578 -0.1329 -0.015966 0.0070959 -0.079698 0.088903 0.15297 0.15295 -0.18305 0.034656 -0.01299 -0.13283 0.043683 -0.12875 -0.21559 -0.1389 0.14698 -0.024698 0.053734 0.007872 0.33001 0.15401 0.091871 0.27571 0.15979 0.11893 0.13359 0.096895 -0.014728 -0.036855 0.11953 0.11225 -0.26138 -0.033898 0.032514 0.019768 -0.15373 -0.094017 0.020347 0.13906 0.069265 0.10869 0.028629 0.0079027 0.074479 0.19267 0.050741 0.10218 -0.09012 0.045134 0.14458 -0.15098 0.12799 0.070164 -0.14605 0.2889 -0.16113 -0.27892 -0.17666 -0.24019 -0.0094752 -0.037914 -0.065818 
in 0.024192 0.23547 -0.23321 -0.29425 -0.12606 0.034231 -0.19221 0.19464 0.086598 0.15704 -0.076822 0.09112 -0.088386 -0.050016 0.0022183 0.020343 -0.1498 0.026954 0.042928 -0.013617 0.0462 0.10082 -0.1538 -0.070256 -0.099444 -0.15029 0.19652 0.0349 -0.15709 0.143 -0.10129 0.097431 0.076084 -0.0847 -0.13114 -0.14507 0.085809 -0.23901 -0.11615 -0.019045 0.023078 -0.088503 0.088274 0.1534 0.15138 -0.16668 0.027076 -0.0051724 -0.11822 0.046645 -0.14323 -0.22261 -0.12789 0.1471 -0.020132 0.036807 0.0055989 0.33068 0.15266 0.07883 0.24207 0.17746 0.1162 0.11211 0.11499 -0.018711 -0.0362 0.10542 0.075117 -0.24308 -0.044454 0.031361 0.013843 -0.12712 -0.065605 0.040214 0.13508 0.10791 0.10226 0.018642 0.0040214 0.081375 0.21628 0.060455 0.1139 -0.084113 0.061514 0.13429 -0.16154 0.11602 0.0805 -0.14732 0.28135 -0.14093 -0.29053 -0.19275 -0.24165 -0.0083558 -0.055244 -0.078181 
to 0.0046606 0.21795 -0.21953 -0.27505 -0.14062 0.038455 -0.17727 0.20146 0.087775 0.14654 -0.099126 0.08934 -0.078857 -0.044984 0.010849 0.017956 -0.12914 0.040881 0.034406 -0.0048809 0.03577 0.094523 -0.15474 -0.084765 -0.098972 -0.163 0.17738 0.056445 -0.1053 0.16289 -0.095394 0.10125 0.072164 -0.11074 -0.12719 -0.15078 0.089512 -0.23439 -0.12845 -0.012548 0.0069802 -0.085266 0.09299 0.17412 0.16222 -0.1986 0.024995 -0.007763 -0.14652 0.045642 -0.14298 -0.2091 -0.15387 0.15078 -0.0086994 0.044894 0.0015374 0.34139 0.14315 0.10433 0.28749 0.17308 0.103 0.13978 0.11921 -0.010038 -0.037975 0.1066 0.10003 -0.2476 -0.051008 0.039344 0.017331 -0.13979 -0.084668 0.01951 0.11733 0.066272 0.11602 0.03671 -0.0083916 0.083063 0.20297 0.061882 0.095753 -0.07586 0.058006 0.14414 -0.15723 0.14338 0.092877 -0.1346 0.28885 -0.15517 -0.26716 -0.15401 -0.24458 -0.01245 -0.045957 -0.10354 
a 0.031895 0.21526 -0.21216 -0.26627 -0.1329 0.033049 -0.17742 0.1943 0.065115 0.14756 -0.087301 0.087801 -0.073933 -0.056696 -0.0010414 0.038182 -0.14349 0.040637 0.061801 -0.03527 0.021408 0.10336 -0.14266 -0.065482 -0.085719 -0.15133 0.17571 0.038946 -0.11799 0.11929 -0.1113 0.11004 0.081721 -0.10552 -0.11859 -0.14322 0.067653 -0.23214 -0.13089 -0.0044806 0.019251 -0.088539 0.072448 0.15605 0.15994 -0.16946 0.011752 -0.0405 -0.1409 0.029377 -0.12128 -0.2079 -0.1489 0.1465 -0.016255 0.046207 0.01324 0.30893 0.15176 0.087543 0.23475 0.14085 0.10883 0.11552 0.11161 -0.018793 -0.037151 0.10604 0.084779 -0.23465 -0.041791 0.039366 0.027246 -0.1518 -0.072026 0.012748 0.12777 0.057876 0.087284 0.031194 -0.0034118 0.080783 0.2009 0.066541 0.12821 -0.087426 0.051184 0.12012 -0.15409 0.13742 0.065817 -0.14169 0.26635 -0.13748 -0.2696 -0.1725 -0.24589 0.0039224 -0.060399 -0.084191 
as 0.033281 0.21163 -0.20187 -0.27181 -0.1501 0.03762 -0.16244 0.20306 0.059253 0.11562 -0.10156 0.090219 -0.096216 -0.084418 -0.0044557 0.03792 -0.12305 0.036129 0.037819 -0.017729 0.030977 0.10048 -0.14572 -0.089896 -0.09176 -0.13949 0.18383 0.060269 -0.11967 0.15007 -0.11017 0.10036 0.08586 -0.094764 -0.11027 -0.13874 0.075922 -0.22282 -0.11837 -0.0092197 0.030748 -0.083401 0.093699 0.14398 0.15565 -0.18462 0.029978 -0.03467 -0.14685 0.015995 -0.10413 -0.20924 -0.14386 0.1541 -0.0034484 0.037689 0.0064461 0.31294 0.14644 0.079998 0.25465 0.15021 0.079022 0.12526 0.10976 -0.0024742 -0.046698 0.11686 0.098537 -0.22652 -0.050527 0.0434 0.0077263 -0.13717 -0.083233 0.018779 0.11548 0.060566 0.094778 0.03507 -0.0037828 0.09184 0.20805 0.029508 0.11187 -0.085025 0.075607 0.13893 -0.14171 0.14082 0.079685 -0.13535 0.26846 -0.14887 -0.29081 -0.17792 -0.25312 -0.023704 -0.046519 -0.11444 
one 0.025795 0.22449 -0.25214 -0.28239 -0.11105 0.025623 -0.20165 0.17802 0.091482 0.15478 -0.048015 0.059279 -0.077143 -0.064049 0.0026569 0.02678 -0.14977 0.032208 0.020029 -0.023153 0.033077 0.096419 -0.15893 -0.075263 -0.08377 -0.15994 0.16474 0.042813 -0.14072 0.14754 -0.11242 0.098373 0.07329 -0.092199 -0.15081 -0.15431 0.073149 -0.25125 -0.10849 -0.028292 -0.0056291 -0.086212 0.095092 0.15886 0.14223 -0.15689 0.040632 0.009609 -0.11479 0.045574 -0.12627 -0.2086 -0.1188 0.16568 -0.014715 0.034196 0.0059429 0.33137 0.1771 0.088579 0.24495 0.14526 0.12386 0.11433 0.09526 -0.026209 -0.047361 0.10774 0.085498 -0.23067 -0.097947 0.043506 -0.0021841 -0.12623 -0.057395 0.021803 0.12409 0.095729 0.085244 0.024974 -0.0052739 0.075904 0.21994 0.072238 0.08994 -0.073782 0.066717 0.14367 -0.14938 0.1148 0.10959 -0.14751 0.27923 -0.14278 -0.29645 -0.19536 -0.23561 -0.036732 -0.063085 -0.10873 
is 0.025019 0.20862 -0.21621 -0.27337 -0.13079 0.013723 -0.17357 0.21773 0.040365 0.13432 -0.11988 0.082216 -0.065188 -0.040584 0.0074452 0.026379 -0.12967 0.057574 0.066387 -0.035734 0.011096 0.085823 -0.14975 -0.079027 -0.10906 -0.17186 0.20423 0.030098 -0.1037 0.13798 -0.10647 0.13533 0.092778 -0.11789 -0.14039 -0.13618 0.095231 -0.23055 -0.12338 -0.0092128 0.020703 -0.11057 0.092148 0.17293 0.16544 -0.18963 0.029294 -0.034021 -0.14927 0.038547 -0.12037 -0.20646 -0.15288 0.15134 -0.031829 0.058688 0.020802 0.31111 0.14791 0.10517 0.25677 0.16187 0.10487 0.13488 0.10719 -0.023093 -0.025543 0.12262 0.097271 -0.25896 -0.024948 0.022347 0.013549 -0.13025 -0.060349 0.027393 0.1193 0.074017 0.12113 0.055793 -0.023118 0.059454 0.19599 0.043833 0.14187 -0.085995 0.056409 0.11726 -0.15284 0.14735 0.075412 -0.14251 0.3088 -0.13337 -0.28536 -0.17178 -0.24891 0.0051839 -0.054717 -0.091204 
that 0.0072974 0.22046 -0.22 -0.26589 -0.14859 0.051643 -0.17181 0.21362 0.06192 0.112 -0.12303 0.090309 -0.063813 -0.069399 -0.0056403 0.023041 -0.12299 0.037129 0.059569 -0.037383 0.019517 0.096347 -0.14463 -0.082151 -0.09894 -0.16089 0.19125 0.046632 -0.096494 0.13584 -0.10157 0.10543 0.084474 -0.10728 -0.13232 -0.15385 0.084392 -0.23317 -0.11334 -0.033938 0.030176 -0.079545 0.079152 0.17036 0.15873 -0.18517 0.025052 -0.039188 -0.14532 0.032662 -0.11877 -0.21023 -0.1441 0.15127 -0.012917 0.059558 0.026137 0.33718 0.16117 0.10722 0.27393 0.16545 0.088786 0.13413 0.10475 -0.016892 -0.037722 0.12249 0.094091 -0.25186 -0.049514 0.022772 0.018815 -0.13269 -0.073083 0.020235 0.11389 0.075835 0.10829 0.036712 -0.0051235 0.062262 0.21231 0.04453 0.11652 -0.077601 0.06058 0.1346 -0.15998 0.14404 0.076214 -0.12875 0.30794 -0.12895 -0.29604 -0.16294 -0.26382 -0.0027827 -0.068944 -0.11378 
anarchism 0.032238 0.20041 -0.21021 -0.24682 -0.11756 0.022518 -0.16489 0.18487 0.070043 0.15212 -0.067095 0.066097 -0.066941 -0.062577 0.0069525 0.018376 -0.13617 0.028757 0.037942 -0.025585 0.025081 0.087202 -0.12961 -0.069719 -0.087615 -0.15034 0.16938 0.029454 -0.10856 0.12395 -0.083811 0.087772 0.085046 -0.0975 -0.12107 -0.15692 0.085851 -0.22652 -0.11212 -0.033032 0.011822 -0.096366 0.06845 0.14383 0.14955 -0.15166 0.013798 -0.0079594 -0.13682 0.025496 -0.12774 -0.20716 -0.12076 0.14458 -0.0078622 0.038047 0.0045095 0.3069 0.15143 0.083824 0.24187 0.15236 0.10729 0.11047 0.097106 -0.0070526 -0.021484 0.098216 0.078496 -0.21521 -0.038341 0.035031 0.011961 -0.14813 -0.067234 0.016658 0.125 0.073903 0.10032 0.036684 -0.012686 0.084413 0.18977 0.042056 0.11098 -0.072135 0.056922 0.12041 -0.156 0.12128 0.062106 -0.12566 0.2739 -0.14284 -0.2709 -0.17573 -0.22445 -0.007118 -0.072112 -0.082728 
with 0.033414 0.24143 -0.23526 -0.26583 -0.14797 0.031315 -0.1696 0.22481 0.063207 0.14386 -0.11777 0.098748 -0.061274 -0.05237 0.015365 0.031677 -0.13795 0.03675 0.047137 -0.022906 0.032227 0.10777 -0.15748 -0.066479 -0.11083 -0.16576 0.18475 0.049071 -0.13847 0.14699 -0.09833 0.1294 0.076594 -0.1289 -0.12973 -0.14899 0.098675 -0.26315 -0.1311 -0.0057091 0.027979 -0.087993 0.079667 0.17348 0.16533 -0.18439 0.018409 -0.02861 -0.16253 0.03165 -0.14113 -0.2193 -0.14291 0.14331 -0.014733 0.044652 0.018745 0.33031 0.1701 0.094225 0.2938 0.1691 0.11013 0.14738 0.12667 -0.019492 -0.038698 0.13895 0.10767 -0.24818 -0.058541 0.048072 0.028019 -0.15523 -0.094665 0.021038 0.12371 0.06774 0.11774 0.03407 -0.014517 0.088941 0.19814 0.063565 0.12258 -0.070991 0.076126 0.14337 -0.16696 0.13594 0.080782 -0.12498 0.30747 -0.14231 -0.27505 -0.17879 -0.26985 -5.3813e-05 -0.069222 -0.09096 
or 0.019047 0.22328 -0.23812 -0.29304 -0.14998 0.021784 -0.18963 0.21955 0.06974 0.13772 -0.11355 0.10658 -0.060101 -0.049592 0.011192 0.029119 -0.14145 0.051113 0.05791 -0.031329 0.02976 0.10112 -0.15483 -0.060723 -0.11606 -0.1704 0.19891 0.065716 -0.10248 0.14 -0.11159 0.12129 0.10526 -0.11177 -0.13716 -0.1391 0.096285 -0.26631 -0.14338 -0.018634 0.036008 -0.10645 0.093222 0.14828 0.1648 -0.20627 0.013639 -0.021577 -0.15302 0.029292 -0.11306 -0.22088 -0.15742 0.14647 -0.021661 0.035442 -0.0041484 0.32909 0.14977 0.10087 0.2809 0.16371 0.090705 0.13018 0.10344 -0.022004 -0.030131 0.11773 0.11245 -0.26738 -0.035796 0.04084 0.030685 -0.16338 -0.078077 0.010624 0.12923 0.071713 0.11605 0.050775 -0.013682 0.082408 0.20756 0.047637 0.12579 -0.087202 0.07045 0.1286 -0.17524 0.14773 0.074108 -0.14551 0.29929 -0.16248 -0.29746 -0.18561 -0.26194 -0.012224 -0.06024 -0.099133 
anarchists 0.038982 0.20506 -0.20566 -0.25468 -0.13963 0.04251 -0.17033 0.19474 0.084927 0.14274 -0.081021 0.092345 -0.084364 -0.067039 0.0090966 0.042624 -0.11848 0.051312 0.032137 -0.03292 0.01873 0.083912 -0.15222 -0.074858 -0.077743 -0.14601 0.17792 0.059085 -0.10802 0.13813 -0.0883 0.098151 0.086066 -0.096556 -0.10545 -0.12921 0.059052 -0.24857 -0.1146 -0.025203 0.024872 -0.095451 0.083127 0.1522 0.14909 -0.18167 0.010544 -0.020922 -0.13617 0.018246 -0.11805 -0.19541 -0.13997 0.14518 -0.033342 0.045427 0.00098506 0.31205 0.13601 0.082399 0.24326 0.14795 0.10217 0.13407 0.10598 -0.016854 -0.040911 0.10603 0.10417 -0.24782 -0.056327 0.046037 0.028844 -0.14761 -0.076215 0.0043051 0.12506 0.055871 0.086648 0.033341 0.0047249 0.081395 0.18018 0.046523 0.10116 -0.075805 0.071558 0.11588 -0.1542 0.14707 0.072502 -0.12727 0.28949 -0.14698 -0.27657 -0.16465 -0.23904 -0.015378 -0.04813 -0.093573 
anarchist 0.016666 0.20377 -0.21719 -0.24271 -0.13287 0.0067367 -0.15693 0.19576 0.067305 0.14399 -0.1057 0.092436 -0.076578 -0.068148 -0.0013286 0.024799 -0.12893 0.041577 0.043142 -0.018507 0.016707 0.10846 -0.13825 -0.073738 -0.092452 -0.1416 0.17149 0.04432 -0.10944 0.1318 -0.098262 0.11672 0.073874 -0.098292 -0.11915 -0.15158 0.074195 -0.2366 -0.12458 -0.030349 0.028357 -0.081926 0.076833 0.14973 0.14628 -0.16612 0.022554 -0.03105 -0.12865 0.023742 -0.11962 -0.19334 -0.13694 0.13998 -0.029221 0.036534 0.0059452 0.31002 0.14882 0.099068 0.24756 0.15254 0.083964 0.12434 0.12451 -0.021705 -0.025652 0.11582 0.082824 -0.24115 -0.052036 0.02928 0.014248 -0.15653 -0.083374 0.027574 0.13603 0.073456 0.10619 0.04541 -0.0023339 0.072768 0.18962 0.055542 0.10451 -0.085571 0.072534 0.12988 -0.15029 0.11887 0.080775 -0.12261 0.2694 -0.13971 -0.28222 -0.17598 -0.23302 -0.0088372 -0.050694 -0.078181 
s 0.034202 0.21568 -0.23192 -0.2902 -0.13917 0.040026 -0.18358 0.18511 0.073041 0.14861 -0.077786 0.065414 -0.06933 -0.064502 0.016488 0.052914 -0.14805 0.042677 0.032806 -0.046926 0.025374 0.067031 -0.15957 -0.058474 -0.11184 -0.16063 0.16834 0.05436 -0.13356 0.13442 -0.094608 0.10558 0.097197 -0.10336 -0.13799 -0.15415 0.06952 -0.25301 -0.11236 -0.014455 0.017827 -0.09104 0.091819 0.15596 0.14521 -0.18539 0.027848 4.0158e-06 -0.14342 0.029187 -0.11967 -0.20681 -0.14127 0.14358 -0.0044799 0.055421 0.0097311 0.30368 0.15159 0.086434 0.26433 0.14962 0.10166 0.12657 0.12037 -0.027162 -0.028134 0.11064 0.096942 -0.23541 -0.046287 0.050635 -0.0017398 -0.15619 -0.057734 0.0085206 0.11747 0.079827 0.10175 0.052789 -0.0013698 0.091669 0.21255 0.042526 0.097227 -0.088582 0.064647 0.10909 -0.1546 0.11913 0.073527 -0.13148 0.30015 -0.14083 -0.28415 -0.1783 -0.24559 -0.0063592 -0.050668 -0.077454 
nine 0.047654 0.21288 -0.23469 -0.27006 -0.11138 0.032261 -0.19785 0.194 0.095892 0.14764 -0.057151 0.071678 -0.078797 -0.070427 0.013986 0.017731 -0.12502 0.039257 0.02769 -0.028733 0.033147 0.091975 -0.13259 -0.055617 -0.082123 -0.15195 0.18626 0.04531 -0.13184 0.14331 -0.089482 0.093344 0.076609 -0.094791 -0.1351 -0.17756 0.06286 -0.24352 -0.10457 -0.030389 -0.0089018 -0.08204 0.081673 0.15838 0.14289 -0.15487 0.032336 0.0050151 -0.11031 0.029928 -0.11206 -0.20666 -0.12856 0.13619 -0.010559 0.035329 0.0086129 0.32704 0.15752 0.091116 0.2594 0.13863 0.12115 0.1267 0.1092 -0.014448 -0.022287 0.11095 0.099381 -0.23679 -0.080476 0.052791 0.001082 -0.12328 -0.056953 0.0036093 0.13397 0.075605 0.11061 0.034428 -0.00035944 0.077759 0.19909 0.059184 0.093942 -0.06983 0.050639 0.13216 -0.14134 0.13921 0.10308 -0.14205 0.30138 -0.1258 -0.28266 -0.20126 -0.22478 0.0010001 -0.048788 -0.10429 
for 0.031971 0.21457 -0.20523 -0.26403 -0.14415 0.029004 -0.17687 0.21057 0.05867 0.12759 -0.10625 0.099182 -0.080749 -0.056152 -0.0041547 0.042909 -0.11767 0.050837 0.045784 -0.043265 0.016144 0.10226 -0.15231 -0.082128 -0.10444 -0.13663 0.18945 0.04309 -0.11729 0.13887 -0.099649 0.11733 0.092621 -0.11459 -0.11662 -0.13955 0.096291 -0.2401 -0.12056 -0.026615 0.041317 -0.087614 0.069041 0.16098 0.15659 -0.1862 0.02505 -0.037371 -0.1575 0.025425 -0.12877 -0.20718 -0.14202 0.14217 -0.013896 0.033165 0.021214 0.32681 0.14659 0.0939 0.2425 0.1425 0.10402 0.13036 0.11112 -0.0077992 -0.018688 0.12709 0.1003 -0.23682 -0.039597 0.036921 0.016598 -0.15356 -0.061252 0.0015089 0.11801 0.07597 0.10735 0.051871 -0.0016311 0.077216 0.19437 0.037319 0.10955 -0.080652 0.06391 0.12991 -0.14163 0.13581 0.075929 -0.13624 0.28224 -0.13958 -0.26828 -0.16769 -0.25043 -0.003591 -0.067307 -0.072208 
by 0.039792 0.22192 -0.22578 -0.2796 -0.13526 0.028805 -0.1759 0.22131 0.062528 0.14626 -0.10577 0.083615 -0.067959 -0.054216 0.012084 0.039862 -0.14389 0.040629 0.045653 -0.031608 0.028467 0.10398 -0.14976 -0.066923 -0.091922 -0.1597 0.19333 0.03876 -0.1177 0.12733 -0.11154 0.1063 0.091267 -0.10787 -0.12688 -0.1498 0.083002 -0.25531 -0.13534 -0.01059 0.026156 -0.099332 0.085116 0.13763 0.14942 -0.1908 0.0088797 -0.0107 -0.14089 0.013631 -0.12907 -0.19617 -0.15523 0.15242 -0.023034 0.039417 0.0035148 0.32258 0.15934 0.097481 0.27366 0.15715 0.11545 0.14427 0.10556 -0.019544 -0.023079 0.11598 0.092057 -0.23475 -0.051681 0.035981 0.023682 -0.14653 -0.066931 0.011031 0.13063 0.068129 0.10481 0.047348 -0.0081029 0.072131 0.20495 0.057975 0.12379 -0.075514 0.067801 0.13615 -0.15525 0.13105 0.072652 -0.1306 0.29636 -0.14888 -0.28961 -0.18056 -0.25651 -0.0072078 -0.064359 -0.087301 
zero 0.032425 0.21335 -0.22768 -0.25865 -0.10225 0.04378 -0.18534 0.18192 0.099639 0.1535 -0.066752 0.06209 -0.059416 -0.065522 0.0045189 0.031888 -0.1487 0.03426 0.019206 -0.045697 0.036203 0.090123 -0.13373 -0.073053 -0.092874 -0.16302 0.1529 0.04713 -0.12011 0.15633 -0.10982 0.10135 0.074684 -0.099136 -0.14719 -0.15633 0.056513 -0.23411 -0.1287 -0.040753 0.019712 -0.079338 0.083551 0.16212 0.16641 -0.15023 0.033288 -0.021454 -0.14872 0.0076268 -0.12053 -0.20958 -0.12913 0.14354 -0.022477 0.056878 0.010744 0.32171 0.17192 0.086688 0.23042 0.16328 0.10765 0.13239 0.1079 -0.021649 -0.050167 0.12668 0.11033 -0.2148 -0.097649 0.052448 -0.010749 -0.13483 -0.085953 0.0094319 0.15077 0.09062 0.092588 0.031484 0.021917 0.09078 0.20086 0.059364 0.082434 -0.075848 0.053541 0.12852 -0.14022 0.10605 0.10975 -0.13954 0.30307 -0.16303 -0.28835 -0.17832 -0.23308 0.0091391 -0.054398 -0.10244 
be 0.024516 0.20614 -0.2293 -0.27498 -0.15908 0.035049 -0.17183 0.21099 0.076493 0.12919 -0.11054 0.092315 -0.062967 -0.044504 0.014601 0.045927 -0.12285 0.034572 0.05394 -0.020958 0.021299 0.09334 -0.15123 -0.059641 -0.093173 -0.17739 0.18193 0.04566 -0.12473 0.13121 -0.10845 0.11548 0.090104 -0.10168 -0.12722 -0.15203 0.097198 -0.24172 -0.11878 -0.011168 0.0081579 -0.098783 0.079314 0.17282 0.15662 -0.17841 0.021321 -0.028501 -0.13369 0.045984 -0.12407 -0.21995 -0.1631 0.15171 -0.019154 0.038381 0.013547 0.32712 0.15332 0.11046 0.27067 0.1565 0.093659 0.12799 0.10599 -0.029529 -0.023288 0.12311 0.10471 -0.26317 -0.056553 0.055089 0.032904 -0.13838 -0.080393 0.021767 0.12202 0.063455 0.10916 0.024978 -0.015463 0.093621 0.2035 0.046006 0.12061 -0.082534 0.063159 0.14382 -0.16856 0.13965 0.087878 -0.12781 0.29713 -0.14328 -0.29319 -0.17777 -0.26248 -0.021597 -0.053074 -0.082661 
autism 0.028333 0.24096 -0.24492 -0.29931 -0.15159 0.040885 -0.20146 0.24609 0.050444 0.13098 -0.13701 0.11367 -0.068426 -0.054472 0.014331 0.039847 -0.1297 0.058489 0.076851 -0.023729 0.023593 0.092556 -0.14834 -0.080479 -0.12115 -0.18262 0.20989 0.043784 -0.15753 0.15416 -0.099249 0.15228 0.089358 -0.10597 -0.12811 -0.16562 0.097859 -0.25883 -0.15895 -0.0072658 0.038665 -0.093483 0.075623 0.17893 0.16799 -0.20658 0.024794 -0.02366 -0.16005 0.012189 -0.13791 -0.22852 -0.15624 0.14374 -0.027412 0.048319 0.020817 0.33076 0.17909 0.10749 0.29376 0.16908 0.11704 0.15357 0.11091 -0.035959 -0.023021 0.12938 0.13029 -0.27723 -0.047724 0.03729 0.015612 -0.16329 -0.090822 0.021477 0.12108 0.075581 0.12522 0.056669 -0.026072 0.083117 0.22112 0.057781 0.13888 -0.079528 0.070516 0.15219 -0.17183 0.1471 0.080445 -0.15716 0.30794 -0.16307 -0.30136 -0.20262 -0.28478 0.0033076 -0.050989 -0.066483 
they 0.018494 0.22561 -0.20684 -0.25965 -0.16022 0.037088 -0.17798 0.20953 0.063989 0.13514 -0.10687 0.099336 -0.07345 -0.066309 0.0073063 0.047097 -0.12613 0.048081 0.045298 -0.014443 0.024563 0.10573 -0.15625 -0.074113 -0.10338 -0.14938 0.1897 0.060502 -0.12565 0.13968 -0.093138 0.11744 0.094359 -0.099266 -0.10398 -0.12944 0.090321 -0.23179 -0.12721 -0.0061163 0.021849 -0.088298 0.083184 0.16403 0.15448 -0.18765 0.027895 -0.028959 -0.15041 0.014653 -0.11492 -0.20489 -0.1446 0.14702 -0.023562 0.0344 0.013385 0.32773 0.15495 0.098418 0.25698 0.16112 0.090092 0.12532 0.12177 -0.030793 -0.020731 0.11382 0.10997 -0.24687 -0.038386 0.030505 0.0082428 -0.1616 -0.073498 0.0087927 0.12253 0.055381 0.10628 0.035653 -0.015054 0.086425 0.20012 0.04846 0.099456 -0.0851 0.074531 0.13308 -0.15714 0.13906 0.063099 -0.14207 0.28142 -0.15423 -0.27317 -0.17904 -0.25273 -0.0075115 -0.045809 -0.075798 
are 0.0080232 0.20784 -0.23219 -0.25972 -0.15056 0.039968 -0.19448 0.20775 0.076954 0.13041 -0.10122 0.078963 -0.068658 -0.032917 0.0022749 0.050435 -0.11634 0.037842 0.039937 -0.018255 0.030144 0.10599 -0.14768 -0.068473 -0.10815 -0.16868 0.16163 0.056148 -0.11719 0.14842 -0.09614 0.10773 0.090832 -0.095031 -0.11024 -0.16992 0.093859 -0.23593 -0.13359 -0.01731 0.010703 -0.09258 0.078511 0.16458 0.16016 -0.16346 0.035269 -0.029736 -0.13233 0.029408 -0.11003 -0.2041 -0.16227 0.13411 -0.036347 0.041017 0.0057318 0.33533 0.15048 0.10777 0.27443 0.17455 0.09724 0.11924 0.10969 -0.028444 -0.038573 0.10581 0.096576 -0.2689 -0.046798 0.051608 0.0057009 -0.13739 -0.079252 0.012001 0.12559 0.070025 0.10969 0.049836 -0.013053 0.079961 0.1884 0.072587 0.11897 -0.075207 0.049974 0.146 -0.16518 0.15523 0.069668 -0.1415 0.2891 -0.14374 -0.27082 -0.15316 -0.22931 0.0095945 -0.045981 -0.073698 
have 0.021395 0.21192 -0.21146 -0.26408 -0.14334 0.026411 -0.1784 0.20297 0.064223 0.14437 -0.11186 0.09858 -0.068372 -0.054985 0.011658 0.051881 -0.13215 0.042394 0.057654 -0.029685 0.033016 0.098464 -0.15537 -0.065146 -0.0868 -0.15241 0.19223 0.051376 -0.13539 0.14508 -0.099858 0.10415 0.097659 -0.10465 -0.11093 -0.12806 0.087248 -0.2481 -0.12757 -0.0077952 0.021227 -0.095056 0.077249 0.13501 0.13221 -0.17643 0.012554 -0.024169 -0.1444 0.026731 -0.11018 -0.21327 -0.14068 0.13086 -0.0074262 0.054166 0.015286 0.30881 0.15842 0.087788 0.26681 0.15249 0.089624 0.1321 0.097607 -0.013598 -0.017254 0.10628 0.11308 -0.23601 -0.04807 0.047343 0.022541 -0.14193 -0.087177 0.0083412 0.11755 0.064393 0.099154 0.04911 -0.01427 0.076238 0.1787 0.04654 0.10561 -0.071151 0.060446 0.13876 -0.15972 0.1471 0.067038 -0.12494 0.27461 -0.15382 -0.25842 -0.17753 -0.25531 -0.010244 -0.057125 -0.065794 
some 0.026195 0.19944 -0.20616 -0.25062 -0.15067 0.017952 -0.17656 0.20942 0.063947 0.12455 -0.11934 0.10183 -0.079802 -0.059805 -0.0050179 0.047372 -0.12706 0.043917 0.041104 -0.016187 0.027489 0.098786 -0.14392 -0.070337 -0.086459 -0.15521 0.18365 0.040121 -0.1227 0.12436 -0.090284 0.1063 0.074593 -0.11542 -0.12724 -0.1383 0.071212 -0.24509 -0.12826 -0.011063 0.014594 -0.082636 0.091707 0.14534 0.14094 -0.16962 0.0070371 -0.045033 -0.14164 0.028434 -0.12471 -0.20089 -0.12565 0.15838 -0.011968 0.047234 0.0097048 0.30652 0.14585 0.094999 0.2667 0.13276 0.098072 0.12655 0.10213 -0.027942 -0.021894 0.11939 0.10016 -0.2507 -0.04575 0.044513 0.018772 -0.14358 -0.072223 0.021292 0.12247 0.067877 0.098935 0.042845 -0.025214 0.071691 0.19659 0.057532 0.10324 -0.067981 0.06057 0.12269 -0.16285 0.12342 0.059049 -0.14243 0.26426 -0.12682 -0.26135 -0.17444 -0.25462 -0.011221 -0.058494 -0.072965 
an 0.021532 0.21777 -0.20937 -0.25212 -0.13322 0.026899 -0.16758 0.19963 0.060725 0.13653 -0.097354 0.085154 -0.074209 -0.060283 0.001682 0.027123 -0.13411 0.049481 0.054791 -0.02912 0.019966 0.090193 -0.1515 -0.060826 -0.10664 -0.15701 0.17963 0.034312 -0.1087 0.12152 -0.11317 0.10627 0.093645 -0.095314 -0.13483 -0.14366 0.074514 -0.23689 -0.11433 -0.0040968 0.021873 -0.081849 0.073039 0.14622 0.13738 -0.17811 0.025791 -0.029495 -0.12864 0.035136 -0.12511 -0.19572 -0.12945 0.14495 -0.01527 0.0305 0.010299 0.30053 0.14386 0.08603 0.26309 0.14616 0.10433 0.11909 0.11068 -0.016504 -0.031701 0.1157 0.096182 -0.23978 -0.046001 0.013856 0.028235 -0.14699 -0.074018 0.0098363 0.12787 0.050555 0.12232 0.044899 -0.013828 0.073728 0.2007 0.043668 0.11665 -0.076894 0.076197 0.12874 -0.14863 0.13473 0.076955 -0.14187 0.27914 -0.13694 -0.26361 -0.16937 -0.23229 -0.012714 -0.065577 -0.07353 
people 0.029427 0.22948 -0.23501 -0.29314 -0.14471 0.044075 -0.1843 0.22519 0.073007 0.16258 -0.12432 0.10826 -0.082146 -0.055086 0.0074382 0.030943 -0.14096 0.038886 0.067543 -0.018918 0.019486 0.11035 -0.15832 -0.067594 -0.10523 -0.16978 0.20372 0.045809 -0.14341 0.15522 -0.11051 0.14381 0.08592 -0.12711 -0.1168 -0.16109 0.087555 -0.27536 -0.14186 -0.024277 0.018124 -0.092877 0.084314 0.17593 0.16188 -0.19819 0.025362 -0.031799 -0.14813 0.030935 -0.13114 -0.23656 -0.1585 0.16086 -0.017513 0.044706 0.0025065 0.33765 0.16561 0.10492 0.29845 0.17334 0.11446 0.13065 0.11355 -0.019435 -0.028588 0.11759 0.1101 -0.26068 -0.033526 0.050084 0.025937 -0.16188 -0.073523 0.014181 0.13781 0.069444 0.099619 0.055106 -0.0025921 0.098989 0.22697 0.068621 0.12265 -0.092151 0.060008 0.14377 -0.15346 0.14092 0.067485 -0.14989 0.31224 -0.15282 -0.29579 -0.18379 -0.29267 -0.0062645 -0.052914 -0.0815 
it 0.01587 0.22527 -0.20689 -0.2601 -0.14467 0.021979 -0.16656 0.21737 0.052342 0.13345 -0.10521 0.085714 -0.066889 -0.057865 0.013648 0.029428 -0.11531 0.040175 0.053117 -0.02863 0.023825 0.10038 -0.14898 -0.072748 -0.10141 -0.1639 0.19535 0.053851 -0.10972 0.12839 -0.092407 0.10658 0.099117 -0.09443 -0.11838 -0.14881 0.080575 -0.23717 -0.11957 -0.024049 0.032276 -0.088167 0.073588 0.15269 0.14844 -0.18051 0.025764 -0.036291 -0.13945 0.025459 -0.10419 -0.20703 -0.13436 0.15341 -0.028549 0.050396 0.0062742 0.30593 0.15711 0.10276 0.26721 0.14767 0.080894 0.1304 0.1123 -0.018152 -0.036346 0.12203 0.093922 -0.25488 -0.038826 0.039007 0.0059199 -0.13917 -0.079728 0.0098163 0.12165 0.076232 0.10741 0.043463 -0.025486 0.073532 0.19185 0.050005 0.12849 -0.078764 0.053475 0.12658 -0.15997 0.15178 0.080162 -0.12982 0.29271 -0.13865 -0.28525 -0.15825 -0.25475 -0.014547 -0.051018 -0.095446 
not 0.013268 0.23865 -0.2392 -0.28411 -0.15321 0.034626 -0.17204 0.22584 0.058514 0.14739 -0.12182 0.10548 -0.080741 -0.054343 0.011729 0.025815 -0.13681 0.05125 0.059948 -0.024328 0.017816 0.11308 -0.14835 -0.067202 -0.10916 -0.16724 0.19948 0.052862 -0.11704 0.15129 -0.11298 0.13064 0.085296 -0.11877 -0.10594 -0.15022 0.089892 -0.25421 -0.12764 -0.017789 0.036726 -0.09096 0.083074 0.1743 0.16791 -0.19553 0.020192 -0.027192 -0.15868 0.027249 -0.11929 -0.21867 -0.16418 0.14946 -0.034438 0.034455 0.0083227 0.34174 0.15481 0.10861 0.28583 0.15581 0.10721 0.13975 0.10581 -0.0091956 -0.029373 0.11521 0.098987 -0.25913 -0.039798 0.028675 0.013473 -0.15423 -0.082394 0.0013726 0.11907 0.083504 0.10887 0.034867 -0.020762 0.088888 0.2025 0.051788 0.12997 -0.079687 0.063408 0.14639 -0.15843 0.13925 0.085881 -0.13576 0.29078 -0.1425 -0.29162 -0.164 -0.25595 -0.014204 -0.054183 -0.093044 
autistic 0.018164 0.21605 -0.21777 -0.28405 -0.15573 0.022333 -0.18661 0.2186 0.055667 0.14933 -0.11361 0.094915 -0.060669 -0.051756 0.0055002 0.027796 -0.14173 0.047422 0.051621 -0.012914 0.023904 0.11845 -0.1653 -0.079969 -0.10225 -0.1662 0.18877 0.055473 -0.12403 0.14995 -0.11493 0.13658 0.092199 -0.10262 -0.11251 -0.14262 0.10406 -0.24979 -0.12933 -0.0079357 0.021331 -0.089143 0.072609 0.16303 0.15687 -0.19366 0.032716 -0.030055 -0.1374 0.030178 -0.11852 -0.22481 -0.15206 0.14917 -0.030452 0.054252 0.014532 0.33683 0.16979 0.10454 0.30177 0.17006 0.10578 0.1292 0.12009 -0.024251 -0.029486 0.11357 0.10164 -0.27382 -0.045447 0.03018 0.024299 -0.15188 -0.075544 0.01143 0.12624 0.064237 0.12047 0.037996 -0.021126 0.069107 0.21049 0.053305 0.13426 -0.092443 0.05833 0.14782 -0.17001 0.13883 0.067116 -0.15143 0.301 -0.15934 -0.29665 -0.16231 -0.26937 -0.010415 -0.06569 -0.091567 
was 0.0099767 0.20646 -0.22486 -0.25852 -0.14598 0.021246 -0.16965 0.20377 0.080358 0.13321 -0.089513 0.081827 -0.073042 -0.065445 0.0021881 0.019646 -0.14414 0.042648 0.030699 -0.032581 0.016781 0.085973 -0.14626 -0.067195 -0.093815 -0.15282 0.18628 0.0362 -0.1211 0.14739 -0.088514 0.096251 0.080728 -0.09903 -0.12085 -0.14863 0.067145 -0.25033 -0.10575 -0.015989 0.021017 -0.10187 0.097409 0.14883 0.15435 -0.17421 0.021112 -0.033039 -0.13898 0.021446 -0.10843 -0.20667 -0.13494 0.13153 -0.021653 0.032326 0.014557 0.32051 0.15404 0.080421 0.2441 0.16649 0.1023 0.12543 0.11079 -0.0068319 -0.034619 0.1126 0.07554 -0.25068 -0.053109 0.049081 0.017308 -0.13936 -0.074354 0.013656 0.11963 0.076453 0.11102 0.018105 -0.0040458 0.085827 0.19165 0.062664 0.10977 -0.070952 0.058565 0.13469 -0.15881 0.14962 0.080488 -0.13397 0.27097 -0.15736 -0.275 -0.16465 -0.24731 -0.0035877 -0.071772 -0.076766 
such 0.035432 0.20057 -0.21268 -0.24889 -0.13721 0.044164 -0.16213 0.19414 0.046828 0.11459 -0.11755 0.096927 -0.07527 -0.049508 -0.0071196 0.040248 -0.12593 0.041029 0.053541 -0.01022 0.021065 0.094093 -0.13988 -0.080989 -0.10547 -0.14143 0.20182 0.061363 -0.093507 0.14335 -0.086386 0.11682 0.096411 -0.096402 -0.10433 -0.12143 0.079949 -0.22884 -0.12005 -0.027154 0.038307 -0.078267 0.082509 0.15126 0.14537 -0.20468 0.021088 -0.036749 -0.13845 0.016786 -0.10874 -0.20058 -0.14767 0.13234 -0.01828 0.026159 0.0096273 0.30963 0.137 0.086902 0.26146 0.14576 0.091796 0.12824 0.10244 -0.0018967 -0.044631 0.11741 0.11882 -0.22989 -0.026143 0.04706 0.033043 -0.13441 -0.096907 -0.0067349 0.13074 0.072673 0.10803 0.039819 -0.017469 0.077843 0.19454 0.042305 0.095597 -0.067913 0.067592 0.12754 -0.14136 0.14147 0.060525 -0.13516 0.24797 -0.15758 -0.25567 -0.17492 -0.23853 -0.019908 -0.040855 -0.085935 
eight 0.030429 0.23177 -0.23259 -0.27741 -0.12867 0.03218 -0.18713 0.19688 0.072329 0.16417 -0.062901 0.063218 -0.093391 -0.076918 0.020354 0.028833 -0.157 0.044177 0.028039 -0.034194 0.03279 0.10763 -0.15653 -0.073768 -0.087111 -0.14744 0.18592 0.02678 -0.13632 0.14691 -0.098908 0.11182 0.067597 -0.0926 -0.14515 -0.17194 0.063916 -0.24145 -0.11552 -0.030071 -0.011739 -0.10655 0.096995 0.16511 0.14234 -0.16524 0.035213 -0.00030545 -0.12698 0.035778 -0.11297 -0.22994 -0.13173 0.16929 -0.027737 0.052286 0.0021283 0.33136 0.16882 0.10456 0.24648 0.12856 0.12565 0.13299 0.10969 -0.01109 -0.03469 0.11969 0.090173 -0.22736 -0.078888 0.048476 0.0092205 -0.13753 -0.074529 0.01027 0.12742 0.077411 0.10695 0.025506 -0.0079171 0.068607 0.20753 0.042874 0.089293 -0.092428 0.059662 0.13811 -0.14659 0.12087 0.09425 -0.15959 0.29564 -0.12868 -0.30562 -0.20126 -0.24803 -0.01345 -0.078553 -0.094267 
this 0.030211 0.22208 -0.22905 -0.29095 -0.15699 0.027345 -0.17556 0.23352 0.061529 0.13378 -0.10097 0.10817 -0.06432 -0.065356 0.0080949 0.04424 -0.12812 0.044864 0.058435 -0.026042 0.025006 0.11307 -0.16035 -0.072988 -0.11832 -0.16641 0.18984 0.062389 -0.10638 0.14563 -0.11468 0.12424 0.0862 -0.10549 -0.11861 -0.15637 0.097117 -0.26111 -0.13783 -0.002289 0.030744 -0.09871 0.093813 0.15184 0.15307 -0.18231 0.020715 -0.020524 -0.16128 0.044846 -0.12258 -0.21634 -0.163 0.15526 -0.034679 0.042453 0.025589 0.34622 0.16675 0.10756 0.28854 0.17499 0.0975 0.14122 0.13367 -0.0079974 -0.03461 0.12607 0.11674 -0.27141 -0.051019 0.031987 0.026208 -0.15951 -0.083193 0.007376 0.10677 0.073568 0.12585 0.049801 -0.019712 0.072057 0.2031 0.048588 0.14278 -0.076729 0.061568 0.14434 -0.16952 0.15814 0.073655 -0.14334 0.29948 -0.14808 -0.28646 -0.18281 -0.27277 -0.0082803 -0.067327 -0.087328 
many 0.025777 0.20235 -0.20643 -0.25852 -0.14022 0.04759 -0.16442 0.20709 0.069824 0.13581 -0.10744 0.094202 -0.067172 -0.049335 0.010947 0.045911 -0.12148 0.027092 0.050379 -0.020874 0.02056 0.09293 -0.15819 -0.054993 -0.084539 -0.16179 0.16511 0.049425 -0.10896 0.13482 -0.091771 0.10022 0.087849 -0.092227 -0.1128 -0.14905 0.093582 -0.24171 -0.13161 -0.025002 0.020574 -0.083293 0.073576 0.14647 0.1567 -0.17982 0.0096807 -0.032344 -0.13541 0.031899 -0.10903 -0.18541 -0.13693 0.14313 -0.029406 0.049523 0.0035053 0.3104 0.14121 0.089833 0.26052 0.14758 0.10378 0.12753 0.094546 -0.030778 -0.022558 0.1108 0.094753 -0.24894 -0.045993 0.02724 0.022209 -0.15014 -0.06485 0.014205 0.12255 0.057565 0.11254 0.040457 -0.004799 0.076494 0.18487 0.053297 0.10117 -0.078129 0.070276 0.1436 -0.14982 0.1401 0.0629 -0.13982 0.28455 -0.14283 -0.26003 -0.15525 -0.25027 0.0050411 -0.064362 -0.083805 
from 0.029726 0.22244 -0.22024 -0.28043 -0.1358 0.048685 -0.19046 0.21891 0.083054 0.15626 -0.085038 0.0901 -0.075936 -0.062033 0.00032408 0.047962 -0.13463 0.031609 0.037057 -0.014291 0.022189 0.092759 -0.15059 -0.081762 -0.090567 -0.17034 0.19037 0.054947 -0.13912 0.16148 -0.11401 0.11346 0.079323 -0.10589 -0.12986 -0.14512 0.071287 -0.26356 -0.1356 -0.021814 0.016074 -0.1078 0.096247 0.15709 0.14764 -0.1797 0.025813 -0.017911 -0.12772 0.044555 -0.11743 -0.20632 -0.15528 0.15714 -0.02241 0.046342 0.010785 0.3407 0.15516 0.082956 0.26905 0.16656 0.12576 0.12638 0.12695 -0.029273 -0.048516 0.1257 0.10427 -0.27285 -0.039816 0.034955 0.0066856 -0.14554 -0.078727 0.025231 0.12313 0.068664 0.11169 0.058391 0.00066938 0.091219 0.21148 0.03429 0.1042 -0.093334 0.075715 0.12592 -0.15795 0.13897 0.093224 -0.16101 0.30007 -0.14767 -0.28628 -0.19203 -0.2419 -0.012225 -0.070338 -0.073046 
on 0.026019 0.20839 -0.20383 -0.24732 -0.14429 0.028786 -0.16266 0.20144 0.047289 0.13684 -0.098752 0.083903 -0.093072 -0.053622 -0.00098896 0.043646 -0.11267 0.04169 0.042722 -0.029362 0.032322 0.088596 -0.14972 -0.071405 -0.073638 -0.14356 0.16723 0.027402 -0.11541 0.11477 -0.10657 0.08541 0.079056 -0.10959 -0.11048 -0.13997 0.076007 -0.22631 -0.12924 -0.020989 0.026726 -0.083209 0.079517 0.14912 0.14526 -0.16373 -0.00095603 -0.04067 -0.13563 0.03077 -0.11831 -0.19223 -0.13923 0.14273 0.00031666 0.038632 -0.0044611 0.29963 0.14212 0.10511 0.25276 0.15107 0.097019 0.11977 0.11846 -0.011596 -0.011935 0.10057 0.11065 -0.23655 -0.037813 0.026954 0.014868 -0.13334 -0.062255 0.034774 0.12995 0.050158 0.1079 0.044815 -0.041353 0.065335 0.17812 0.046778 0.12022 -0.077705 0.070718 0.11946 -0.16384 0.13299 0.062386 -0.12376 0.26923 -0.12233 -0.26427 -0.16934 -0.23486 -0.005604 -0.051658 -0.071235 
their 0.014238 0.22775 -0.24223 -0.29769 -0.15536 0.021891 -0.18115 0.21752 0.068385 0.13903 -0.10068 0.10601 -0.064297 -0.048758 0.0041141 0.023493 -0.14394 0.035363 0.051005 -0.017989 0.040175 0.10383 -0.15225 -0.079574 -0.11387 -0.1865 0.18789 0.049951 -0.11296 0.1503 -0.11175 0.12841 0.084192 -0.097181 -0.12855 -0.16149 0.098616 -0.25747 -0.13452 -0.0059546 0.025546 -0.095742 0.094396 0.16001 0.15746 -0.19614 0.02604 -0.026314 -0.15427 0.044861 -0.12787 -0.22643 -0.14797 0.14235 -0.033526 0.044261 0.018397 0.34106 0.14782 0.098302 0.29812 0.17546 0.10376 0.13499 0.12201 -0.0036042 -0.029991 0.11653 0.10827 -0.27488 -0.033069 0.058094 0.018573 -0.15211 -0.093958 0.0092563 0.12115 0.059635 0.11601 0.041892 0.00303 0.083556 0.20319 0.047479 0.12794 -0.086752 0.060573 0.13121 -0.16989 0.15384 0.091118 -0.14745 0.30846 -0.15374 -0.28336 -0.17711 -0.26574 -0.0066937 -0.059392 -0.095941 
social 0.021977 0.22559 -0.21781 -0.2794 -0.1306 0.033715 -0.19127 0.21464 0.051184 0.14892 -0.1018 0.10288 -0.083686 -0.055623 0.017219 0.02162 -0.12842 0.057697 0.041431 -0.034308 0.038348 0.087716 -0.14285 -0.086807 -0.10204 -0.15483 0.19592 0.069292 -0.12972 0.15493 -0.092397 0.12473 0.08465 -0.10059 -0.12313 -0.13439 0.096662 -0.22872 -0.12876 -0.027651 0.029773 -0.079774 0.076191 0.15836 0.16063 -0.18472 0.01572 -0.024063 -0.13932 0.024469 -0.12572 -0.21075 -0.14493 0.1353 -0.016435 0.061144 0.027495 0.31077 0.16751 0.10318 0.24911 0.16828 0.1129 0.13464 0.12864 -0.022005 -0.042554 0.1228 0.11963 -0.25834 -0.0429 0.023198 0.010369 -0.15708 -0.0826 0.0043559 0.10887 0.071172 0.1073 0.051842 -0.01768 0.081787 0.2065 0.043661 0.12287 -0.098962 0.067102 0.13074 -0.17307 0.14076 0.059362 -0.14073 0.28979 -0.14082 -0.29036 -0.1971 -0.25718 -0.0078828 -0.051247 -0.072023 
two 0.03743 0.21034 -0.22454 -0.26737 -0.12798 0.031101 -0.18269 0.2076 0.078267 0.14313 -0.078362 0.078762 -0.089248 -0.056005 -0.0008368 0.037486 -0.13725 0.047562 0.037374 -0.017849 0.032107 0.10052 -0.14975 -0.075371 -0.09118 -0.1496 0.17092 0.049417 -0.11933 0.14259 -0.11499 0.11138 0.074573 -0.098835 -0.12926 -0.15721 0.074146 -0.2477 -0.11998 -0.014451 5.1229e-05 -0.092339 0.094915 0.15064 0.12744 -0.17411 0.016307 -0.015509 -0.1378 0.030331 -0.11726 -0.21935 -0.13295 0.14658 -0.020754 0.029889 0.0014915 0.3239 0.15016 0.0932 0.2541 0.15411 0.10534 0.11623 0.099578 -0.013816 -0.046461 0.11758 0.10928 -0.22257 -0.059008 0.046176 0.0097601 -0.13353 -0.08534 0.0011218 0.13608 0.085942 0.1037 0.043304 -0.014967 0.076459 0.19648 0.058136 0.098456 -0.070249 0.067449 0.12386 -0.14987 0.12397 0.086301 -0.14129 0.27825 -0.14528 -0.27564 -0.19192 -0.23895 -0.013383 -0.054149 -0.084901 
other 0.027102 0.23104 -0.22515 -0.28783 -0.14606 0.029528 -0.17803 0.22095 0.059882 0.14032 -0.12415 0.096669 -0.071286 -0.071488 0.019883 0.030547 -0.14547 0.036302 0.054918 -0.020267 0.034505 0.10059 -0.16212 -0.057416 -0.1022 -0.17164 0.19748 0.050278 -0.1202 0.12999 -0.093858 0.1254 0.10388 -0.10606 -0.13417 -0.14977 0.092888 -0.26091 -0.12041 -0.0055987 0.024503 -0.098705 0.086566 0.15003 0.15244 -0.18226 0.026272 -0.035622 -0.1434 0.033813 -0.13871 -0.21137 -0.15982 0.14149 -0.0044047 0.036448 0.0090364 0.33015 0.15669 0.097159 0.28454 0.16239 0.11875 0.13006 0.11906 -0.0060145 -0.027135 0.10915 0.11791 -0.26646 -0.049604 0.032713 0.022578 -0.13712 -0.090263 0.013445 0.11222 0.07724 0.11256 0.051408 -0.012072 0.077224 0.21441 0.050585 0.11658 -0.085544 0.071324 0.129 -0.16954 0.15721 0.070709 -0.14313 0.29976 -0.15608 -0.28753 -0.17567 -0.2673 -0.023425 -0.067292 -0.087691 
anarcho 0.0056411 0.20623 -0.2014 -0.26015 -0.14305 0.042644 -0.17409 0.20102 0.073245 0.14515 -0.080665 0.084607 -0.071848 -0.057792 -0.0080226 0.036859 -0.13541 0.028523 0.056393 -0.047655 0.019494 0.10683 -0.14831 -0.075586 -0.1045 -0.14006 0.19121 0.051573 -0.12998 0.12983 -0.089752 0.11134 0.082721 -0.1127 -0.1196 -0.14446 0.08663 -0.24749 -0.118 -0.026126 0.01775 -0.10055 0.072441 0.14358 0.15614 -0.1867 0.035693 -0.019532 -0.14749 0.022214 -0.12261 -0.22225 -0.14454 0.16311 -0.016219 0.045998 -0.0025008 0.3061 0.1549 0.082145 0.24944 0.14071 0.096606 0.12848 0.095393 -0.017726 -0.033766 0.10858 0.092257 -0.24585 -0.03096 0.038335 0.021999 -0.15074 -0.089398 0.001361 0.1233 0.056455 0.11173 0.03412 0.0053401 0.094709 0.1976 0.041141 0.10558 -0.074134 0.044248 0.13337 -0.15062 0.14134 0.07403 -0.14353 0.27279 -0.16179 -0.27575 -0.16258 -0.24986 -0.0037822 -0.064963 -0.081182 
also 0.019698 0.21328 -0.22565 -0.26721 -0.14842 0.03437 -0.18219 0.19883 0.057876 0.13843 -0.097112 0.085732 -0.077043 -0.065299 0.0083881 0.030006 -0.13761 0.038029 0.053366 -0.02408 0.028832 0.09914 -0.14879 -0.06754 -0.083079 -0.1645 0.17906 0.039849 -0.11087 0.13174 -0.10593 0.11197 0.07498 -0.10905 -0.1288 -0.1483 0.090336 -0.25271 -0.12986 -0.015562 0.019839 -0.089008 0.074274 0.17164 0.1521 -0.18933 0.02998 -0.02868 -0.13529 0.029929 -0.11464 -0.21611 -0.14106 0.14453 -0.027723 0.029677 0.011223 0.33052 0.14643 0.095533 0.25032 0.15544 0.099561 0.13001 0.10132 -0.012183 -0.045812 0.12404 0.098763 -0.24294 -0.049242 0.035036 0.019234 -0.14819 -0.073219 0.0062265 0.13384 0.073214 0.09995 0.041784 -0.012619 0.072738 0.19786 0.0484 0.10397 -0.088362 0.057555 0.13855 -0.14725 0.14304 0.078729 -0.14211 0.29556 -0.15223 -0.27338 -0.17679 -0.26068 -0.019994 -0.063003 -0.09434 
often 0.022624 0.2216 -0.22026 -0.28001 -0.16319 0.025758 -0.18367 0.21307 0.064108 0.15044 -0.1087 0.084865 -0.063942 -0.047763 -0.0073578 0.026188 -0.13289 0.041425 0.057213 -0.034765 0.033983 0.10736 -0.16612 -0.072016 -0.1107 -0.16026 0.19688 0.054116 -0.12992 0.13929 -0.095361 0.10978 0.085818 -0.10772 -0.12366 -0.15711 0.084178 -0.253 -0.15175 -0.029695 0.01985 -0.094492 0.088455 0.15633 0.14703 -0.19668 0.015186 -0.034605 -0.13351 0.028956 -0.12754 -0.21004 -0.14676 0.15277 -0.018148 0.038618 0.0027044 0.34021 0.161 0.090671 0.26912 0.16148 0.099531 0.1461 0.11275 -0.016405 -0.018391 0.12306 0.12045 -0.25959 -0.059137 0.04548 0.022118 -0.16151 -0.082672 0.008458 0.11838 0.074019 0.10737 0.036814 -0.0094601 0.085525 0.19968 0.050475 0.11472 -0.084094 0.066045 0.13047 -0.15363 0.14687 0.085847 -0.12688 0.2956 -0.13833 -0.27627 -0.17924 -0.25624 0.0046903 -0.057786 -0.085314 
see 0.023282 0.208 -0.23418 -0.27855 -0.16087 0.024942 -0.17732 0.21771 0.069025 0.14699 -0.096395 0.088335 -0.086679 -0.058197 0.016847 0.028863 -0.14873 0.039845 0.040981 -0.041945 0.017318 0.10804 -0.166 -0.074079 -0.10868 -0.17583 0.18733 0.040258 -0.12755 0.15232 -0.098117 0.12838 0.092746 -0.11855 -0.13552 -0.15135 0.086708 -0.26364 -0.12136 -0.0088855 0.030917 -0.1038 0.086123 0.15954 0.17241 -0.18284 0.013213 -0.031368 -0.15279 0.016755 -0.13074 -0.20828 -0.16274 0.14653 -0.019068 0.028749 0.0041542 0.33253 0.1586 0.10039 0.27489 0.16555 0.11564 0.14393 0.12529 -0.018331 -0.025849 0.11538 0.10205 -0.26116 -0.035562 0.041083 0.009125 -0.15078 -0.089234 0.012938 0.12428 0.072518 0.12046 0.042654 -0.01927 0.084282 0.21095 0.051684 0.12882 -0.095335 0.062818 0.12497 -0.17341 0.13978 0.068984 -0.15086 0.30841 -0.14762 -0.27269 -0.18502 -0.26608 0.003477 -0.06738 -0.086648 
most 0.036784 0.20004 -0.21316 -0.25837 -0.14374 0.012666 -0.18486 0.20502 0.06256 0.14299 -0.098831 0.090423 -0.057807 -0.055422 -0.0095253 0.043637 -0.14478 0.031722 0.053635 -0.023924 0.026477 0.11014 -0.12197 -0.057576 -0.10797 -0.14568 0.18922 0.062772 -0.10828 0.14351 -0.10017 0.10243 0.095249 -0.10064 -0.11818 -0.14349 0.071158 -0.25647 -0.13446 -0.034213 0.0064834 -0.10432 0.081448 0.14936 0.14859 -0.19807 0.021902 -0.024634 -0.13352 0.032058 -0.11634 -0.21118 -0.14249 0.14561 -0.0052284 0.058096 0.02014 0.31878 0.14193 0.082144 0.25599 0.15835 0.091452 0.1197 0.12521 -0.014281 -0.014612 0.12014 0.095794 -0.22789 -0.052299 0.053698 0.012571 -0.13951 -0.089128 0.010556 0.1224 0.069777 0.11289 0.018265 -0.003332 0.089609 0.19431 0.031857 0.11853 -0.068687 0.057907 0.13303 -0.14894 0.14113 0.079525 -0.12844 0.25855 -0.13857 -0.25665 -0.15945 -0.25045 0.0099909 -0.06217 -0.075204 
can 0.018656 0.24705 -0.23544 -0.30863 -0.17398 0.024156 -0.19755 0.22091 0.075589 0.14996 -0.11825 0.10777 -0.068873 -0.046552 0.0063659 0.041795 -0.15285 0.048078 0.061562 -0.04038 0.028848 0.095785 -0.16125 -0.072481 -0.11666 -0.17479 0.20683 0.049285 -0.1262 0.15566 -0.12057 0.13102 0.093345 -0.10335 -0.11168 -0.15702 0.1033 -0.28491 -0.136 -0.016434 0.020609 -0.094739 0.088716 0.16128 0.15952 -0.19923 0.013538 -0.012134 -0.15026 0.020591 -0.13842 -0.22496 -0.17384 0.14018 -0.016088 0.052242 0.033816 0.36477 0.18194 0.11028 0.28359 0.16722 0.095499 0.13463 0.14535 -0.028893 -0.035198 0.11802 0.12563 -0.27416 -0.035088 0.031075 0.028758 -0.16052 -0.078077 0.025802 0.1254 0.069019 0.11009 0.038673 -0.020576 0.085991 0.22271 0.050318 0.12256 -0.098926 0.076494 0.13967 -0.17861 0.16479 0.080886 -0.14245 0.30331 -0.15206 -0.30295 -0.18653 -0.26422 -0.0012909 -0.046196 -0.071851 
movement 0.0056371 0.2043 -0.21138 -0.24287 -0.12459 0.018057 -0.15813 0.18342 0.060987 0.13243 -0.093963 0.075948 -0.06122 -0.066353 -0.0019275 0.032163 -0.11974 0.028047 0.043139 -0.035437 0.007304 0.10448 -0.14056 -0.072602 -0.082987 -0.15825 0.16982 0.057291 -0.11556 0.13579 -0.10493 0.093999 0.074192 -0.091432 -0.12684 -0.1493 0.084507 -0.24426 -0.10782 -0.0091411 0.010956 -0.0767 0.080833 0.14828 0.15109 -0.15658 0.02756 -0.024314 -0.13954 0.014972 -0.1098 -0.20138 -0.12541 0.12717 -0.025062 0.05097 0.0064279 0.30739 0.14952 0.09745 0.24126 0.15554 0.076383 0.10273 0.092785 -0.016714 -0.036515 0.11079 0.072101 -0.23421 -0.058018 0.020152 0.012535 -0.14927 -0.080502 0.022565 0.10468 0.062981 0.10427 0.038743 -0.01122 0.069719 0.17892 0.050177 0.09588 -0.081755 0.062787 0.118 -0.13818 0.13928 0.070471 -0.11877 0.26128 -0.1425 -0.25099 -0.15076 -0.22884 -0.013635 -0.063372 -0.070252 
may 0.021603 0.23438 -0.24615 -0.28518 -0.15833 0.03093 -0.19398 0.23872 0.062638 0.1465 -0.11916 0.097638 -0.072215 -0.057296 -0.0067335 0.037155 -0.14191 0.056774 0.054488 -0.029144 0.044628 0.095784 -0.16612 -0.069484 -0.12048 -0.18842 0.19788 0.058178 -0.12123 0.14728 -0.093655 0.12377 0.084687 -0.10779 -0.11914 -0.14693 0.11019 -0.27126 -0.13311 -0.011155 0.03084 -0.085147 0.083711 0.15585 0.16568 -0.19928 0.03932 -0.026854 -0.15178 0.014528 -0.14653 -0.23496 -0.16718 0.15546 -0.015656 0.045303 0.023936 0.34237 0.17181 0.096053 0.30125 0.16828 0.12046 0.14817 0.13761 -0.013137 -0.041471 0.1305 0.11391 -0.26421 -0.042271 0.035156 0.016999 -0.14775 -0.087085 0.01815 0.11906 0.061283 0.10956 0.041964 -0.0087056 0.078257 0.22608 0.073819 0.11616 -0.087749 0.058882 0.13508 -0.16751 0.16033 0.072768 -0.1403 0.31605 -0.13672 -0.29706 -0.2003 -0.27724 -0.0073371 -0.065668 -0.097406 
at 0.029011 0.21661 -0.22204 -0.26592 -0.14604 0.040782 -0.1854 0.20363 0.07213 0.14172 -0.10696 0.0897 -0.071108 -0.053525 -0.0020726 0.029875 -0.12421 0.039553 0.040947 -0.036298 0.027369 0.093688 -0.14785 -0.081851 -0.10184 -0.15846 0.18494 0.051132 -0.11471 0.1615 -0.09719 0.10273 0.097148 -0.098802 -0.1329 -0.14183 0.081779 -0.25719 -0.12349 -0.018618 0.032357 -0.095944 0.091122 0.17136 0.16828 -0.20152 0.012045 -0.032911 -0.15593 0.033927 -0.11771 -0.22622 -0.15243 0.15367 -0.032996 0.052238 0.0079434 0.32131 0.15117 0.10452 0.28512 0.15866 0.096399 0.13646 0.11851 -0.016662 -0.046362 0.12358 0.10001 -0.26659 -0.05019 0.038138 0.012645 -0.14012 -0.085204 0.025161 0.12973 0.060564 0.11108 0.038129 -0.0099824 0.078185 0.20885 0.046875 0.098425 -0.094131 0.054207 0.15258 -0.16267 0.15207 0.073165 -0.14267 0.284 -0.16241 -0.28001 -0.17257 -0.26625 -0.016754 -0.046953 -0.086042 
which 0.015007 0.23424 -0.21452 -0.29188 -0.16176 0.036043 -0.17681 0.22022 0.066291 0.13819 -0.10165 0.09041 -0.078943 -0.065702 0.015006 0.033085 -0.14675 0.040392 0.050084 -0.023773 0.010448 0.10415 -0.14678 -0.064949 -0.095698 -0.16265 0.18188 0.06194 -0.10981 0.14752 -0.12332 0.1102 0.10009 -0.10267 -0.13389 -0.13989 0.089526 -0.24712 -0.12149 -0.023084 0.033641 -0.085908 0.084769 0.16014 0.14999 -0.19835 0.01468 -0.031047 -0.14322 0.038214 -0.11976 -0.21496 -0.15118 0.15372 -0.0092801 0.056906 0.003106 0.3187 0.14583 0.082436 0.2806 0.15192 0.10173 0.12314 0.1058 -0.016598 -0.043944 0.11773 0.10782 -0.26279 -0.038447 0.043299 0.028603 -0.13934 -0.087238 0.023276 0.13065 0.073123 0.11206 0.030886 -0.014433 0.080444 0.21035 0.057101 0.10538 -0.080195 0.076721 0.13265 -0.16173 0.15545 0.066409 -0.13815 0.28244 -0.14382 -0.27878 -0.1642 -0.25763 -0.006524 -0.056847 -0.077776 
state 0.02712 0.21445 -0.21531 -0.26345 -0.14628 0.02584 -0.15863 0.20513 0.061862 0.13359 -0.098822 0.084238 -0.06698 -0.056921 0.010398 0.031364 -0.13175 0.027164 0.038892 -0.027548 0.021521 0.095404 -0.13432 -0.063628 -0.090555 -0.14312 0.1776 0.06722 -0.11061 0.12664 -0.097801 0.096107 0.091767 -0.092439 -0.12981 -0.14067 0.082168 -0.22196 -0.13193 -0.020792 0.025991 -0.098222 0.08291 0.14191 0.16151 -0.18072 0.0095633 -0.024837 -0.14802 0.016327 -0.11262 -0.20758 -0.13422 0.1445 -0.0084961 0.042126 0.0065148 0.2962 0.13689 0.094597 0.26418 0.1427 0.097049 0.11169 0.10341 -0.0099243 -0.039138 0.11931 0.10356 -0.24436 -0.03206 0.029709 0.017478 -0.15254 -0.086473 0.0077915 0.1238 0.059283 0.10267 0.035709 -0.0087625 0.06907 0.19086 0.038793 0.098048 -0.073817 0.054276 0.12343 -0.15648 0.12938 0.063812 -0.12929 0.26943 -0.14203 -0.27039 -0.17893 -0.23836 -0.0073478 -0.055662 -0.083497 
first 0.015208 0.24496 -0.23537 -0.29104 -0.17124 0.023725 -0.18784 0.23306 0.073228 0.13989 -0.097691 0.098086 -0.076303 -0.062916 0.018324 0.02464 -0.13709 0.048149 0.040643 -0.029115 0.01933 0.10262 -0.16347 -0.081854 -0.10094 -0.15783 0.20046 0.053271 -0.12401 0.14979 -0.11285 0.12104 0.082682 -0.11687 -0.12859 -0.1749 0.088224 -0.25719 -0.11072 -0.010973 0.022619 -0.108 0.079819 0.14997 0.16248 -0.18024 0.024091 -0.044111 -0.15727 0.023729 -0.13215 -0.2282 -0.13259 0.14877 -0.012907 0.038403 0.029073 0.33862 0.16677 0.087284 0.28447 0.17444 0.11861 0.13443 0.11909 -0.0071271 -0.04704 0.13821 0.10789 -0.26489 -0.052188 0.051571 0.025349 -0.15026 -0.060338 0.030417 0.12998 0.068646 0.10365 0.027457 -0.027875 0.084916 0.2013 0.068202 0.11241 -0.090973 0.058979 0.12821 -0.16065 0.15894 0.078009 -0.15162 0.28701 -0.15512 -0.28852 -0.17827 -0.27016 -0.031045 -0.070177 -0.08558 
three 0.028528 0.21328 -0.22136 -0.25586 -0.11824 0.035643 -0.18943 0.1899 0.082322 0.13682 -0.072622 0.096472 -0.061913 -0.065231 -0.0045922 0.028567 -0.11617 0.043283 0.031584 -0.037975 0.029023 0.083187 -0.15683 -0.080181 -0.073673 -0.1563 0.17325 0.049164 -0.11718 0.13723 -0.099166 0.10681 0.086086 -0.095043 -0.11177 -0.14001 0.08047 -0.23294 -0.10477 -0.0089827 0.026473 -0.060535 0.09289 0.13703 0.14356 -0.16273 0.022239 -0.012606 -0.10813 0.034781 -0.11015 -0.20251 -0.13541 0.1357 -0.011009 0.047899 0.007612 0.30128 0.15661 0.098934 0.24151 0.15582 0.10526 0.13771 0.10929 -0.012402 -0.041082 0.11379 0.11347 -0.23061 -0.053654 0.034019 -0.012712 -0.11699 -0.083529 -0.00035419 0.12027 0.070558 0.094696 0.037478 0.002632 0.062567 0.20856 0.065075 0.085852 -0.084197 0.064071 0.13398 -0.1575 0.14219 0.090833 -0.13463 0.27061 -0.13884 -0.27245 -0.17714 -0.21263 -0.0078157 -0.052429 -0.097547 
his 0.014502 0.23162 -0.22317 -0.2716 -0.15581 0.016251 -0.18268 0.2209 0.056138 0.13165 -0.081323 0.10054 -0.076962 -0.057778 0.00090721 0.020985 -0.14079 0.056006 0.047709 -0.029266 0.016915 0.085852 -0.15186 -0.055077 -0.10643 -0.16413 0.19452 0.050016 -0.12581 0.13082 -0.10828 0.097864 0.10554 -0.10717 -0.13421 -0.13677 0.072426 -0.24662 -0.12776 -0.011537 0.0096744 -0.096824 0.085262 0.14664 0.16095 -0.197 0.023572 -0.041326 -0.15978 0.036518 -0.1153 -0.20803 -0.14027 0.16319 -0.012567 0.051605 -0.0042085 0.33038 0.14811 0.098245 0.27528 0.15339 0.091637 0.12476 0.11457 -0.007632 -0.025288 0.11787 0.10943 -0.25484 -0.029171 0.045821 0.027321 -0.1598 -0.068501 0.017202 0.12657 0.063715 0.10924 0.033829 -0.020753 0.091337 0.21577 0.0589 0.12697 -0.078484 0.052259 0.12087 -0.14899 0.13208 0.07809 -0.14779 0.30888 -0.14733 -0.29607 -0.17396 -0.25545 -0.0061303 -0.069748 -0.096408 
what 0.032848 0.22266 -0.23865 -0.28401 -0.16649 0.031207 -0.18047 0.21618 0.05429 0.13599 -0.11323 0.10416 -0.065661 -0.058539 0.015009 0.030032 -0.1412 0.0499 0.066164 -0.027622 0.015222 0.094378 -0.14272 -0.071485 -0.11484 -0.17108 0.18434 0.044744 -0.11114 0.14618 -0.10042 0.13274 0.093613 -0.11098 -0.11491 -0.14818 0.089893 -0.24336 -0.14217 -0.026074 0.031706 -0.092911 0.0831 0.16964 0.16219 -0.18427 0.037151 -0.028929 -0.14055 0.029507 -0.11912 -0.23372 -0.15005 0.16779 -0.018927 0.043087 0.020259 0.34749 0.15686 0.10557 0.28397 0.16672 0.10739 0.13162 0.12406 -0.020181 -0.027924 0.119 0.096679 -0.26816 -0.034001 0.033989 0.018759 -0.16172 -0.083687 0.011265 0.12336 0.063423 0.1052 0.035947 -0.014111 0.085334 0.21509 0.04262 0.10515 -0.087863 0.064552 0.13812 -0.15416 0.1548 0.081543 -0.14614 0.31097 -0.15691 -0.2897 -0.1931 -0.2612 -0.018505 -0.05111 -0.079354 
its 0.04076 0.20337 -0.19434 -0.24013 -0.12816 0.023303 -0.15561 0.20059 0.063482 0.14022 -0.095416 0.095274 -0.064503 -0.072536 0.016097 0.036756 -0.13015 0.045242 0.049799 -0.020913 0.039049 0.091244 -0.13286 -0.060108 -0.09428 -0.14822 0.18229 0.057299 -0.1028 0.12532 -0.095659 0.098286 0.094347 -0.088121 -0.10803 -0.12906 0.069047 -0.23759 -0.13168 -0.023476 0.019152 -0.079048 0.083011 0.1329 0.16087 -0.18599 0.026278 -0.016282 -0.12664 0.02664 -0.11241 -0.19048 -0.13748 0.14174 -0.010571 0.038664 0.020828 0.29718 0.13582 0.086178 0.243 0.14421 0.09007 0.11941 0.10631 -0.0062662 -0.040531 0.11079 0.097236 -0.24256 -0.029838 0.029089 0.016695 -0.15402 -0.07056 0.010488 0.11539 0.069814 0.10436 0.028632 -0.0028813 0.060618 0.19456 0.041453 0.1198 -0.082262 0.057217 0.11652 -0.15576 0.12818 0.059219 -0.13452 0.27577 -0.13356 -0.24833 -0.15461 -0.24652 -0.0091972 -0.047469 -0.075504 
he 0.014081 0.22891 -0.23438 -0.28066 -0.15471 0.023945 -0.18478 0.22305 0.074967 0.12079 -0.10184 0.08613 -0.077074 -0.061049 0.005261 0.031463 -0.12961 0.03883 0.060113 -0.017088 0.0061095 0.087606 -0.15882 -0.054032 -0.092923 -0.14693 0.19606 0.037887 -0.10436 0.12908 -0.10081 0.10994 0.080188 -0.11047 -0.13559 -0.14541 0.074007 -0.23891 -0.12791 -0.0048444 0.026992 -0.10578 0.069734 0.14703 0.16567 -0.17939 0.024518 -0.041394 -0.15179 0.021831 -0.11991 -0.20643 -0.15144 0.16324 -0.021441 0.047805 0.013588 0.32226 0.14312 0.086183 0.28264 0.14582 0.083185 0.12735 0.10791 -0.023684 -0.026056 0.11056 0.1043 -0.253 -0.046828 0.029315 0.024052 -0.15839 -0.087679 0.010879 0.13714 0.064281 0.098726 0.040751 -0.0068131 0.067116 0.19539 0.043373 0.12157 -0.062774 0.071209 0.12143 -0.16214 0.13541 0.085033 -0.12471 0.29193 -0.14326 -0.27357 -0.16946 -0.24654 0.0012757 -0.06425 -0.087992 
has 0.031156 0.21873 -0.2138 -0.25288 -0.13551 0.019476 -0.18489 0.20406 0.064828 0.13529 -0.10056 0.091453 -0.087995 -0.04771 -0.00018944 0.035172 -0.13807 0.040657 0.054219 -0.031926 0.013737 0.087305 -0.14794 -0.078666 -0.10123 -0.14717 0.17156 0.060663 -0.10094 0.13161 -0.10708 0.11663 0.085532 -0.10002 -0.13056 -0.14847 0.074074 -0.25185 -0.13959 -0.015331 0.031537 -0.087216 0.071478 0.14623 0.13768 -0.19174 0.0135 -0.031418 -0.13069 0.025855 -0.12903 -0.21668 -0.14712 0.14842 -0.0035163 0.040982 0.0025039 0.33213 0.13666 0.102 0.27373 0.17469 0.09474 0.12538 0.11212 -0.00049015 -0.028798 0.11278 0.11075 -0.23977 -0.036713 0.032432 0.0044093 -0.13928 -0.075942 0.030835 0.13581 0.060097 0.11179 0.046895 -0.014245 0.070566 0.19749 0.058275 0.11077 -0.075634 0.061529 0.12807 -0.16446 0.13937 0.069679 -0.11717 0.27856 -0.1331 -0.26789 -0.16878 -0.23977 -0.02737 -0.053664 -0.09166 
society 0.025592 0.18898 -0.19833 -0.2483 -0.14299 0.040255 -0.14819 0.18683 0.06929 0.12813 -0.10511 0.069816 -0.059001 -0.055408 0.0071978 0.026739 -0.10385 0.034139 0.049743 -0.018969 0.013047 0.091097 -0.12222 -0.073153 -0.082959 -0.14868 0.1544 0.048269 -0.11338 0.1315 -0.081926 0.10334 0.087793 -0.091491 -0.12237 -0.12531 0.06188 -0.20675 -0.11657 -0.02421 0.023473 -0.077117 0.069311 0.15854 0.14876 -0.16143 0.014383 -0.030961 -0.12951 0.0053983 -0.10166 -0.17957 -0.12295 0.12008 -6.8818e-05 0.040385 0.0098974 0.2829 0.1418 0.093907 0.23009 0.13236 0.080973 0.10947 0.10323 -0.015331 -0.029721 0.096734 0.09626 -0.23311 -0.053979 0.033229 0.0072967 -0.13401 -0.061032 0.012698 0.11289 0.055081 0.10357 0.035245 -0.015827 0.069602 0.17816 0.058328 0.11795 -0.073877 0.049435 0.12367 -0.13956 0.1428 0.079021 -0.11357 0.26308 -0.13381 -0.25395 -0.14153 -0.22226 -0.014773 -0.056764 -0.075225 
more 0.032593 0.2125 -0.22736 -0.27133 -0.14217 0.028362 -0.18657 0.21389 0.065684 0.14715 -0.091781 0.094916 -0.069794 -0.064227 -0.013632 0.026485 -0.12701 0.049949 0.045492 -0.032706 0.029525 0.092189 -0.1642 -0.06419 -0.095796 -0.15634 0.18365 0.045776 -0.12442 0.13759 -0.1188 0.10561 0.083186 -0.11138 -0.11845 -0.14594 0.078184 -0.26754 -0.13726 -0.010565 0.021471 -0.082301 0.079876 0.14614 0.16447 -0.18003 0.0169 -0.022527 -0.14929 0.020091 -0.11882 -0.20402 -0.15273 0.15442 -0.010086 0.052998 0.00071197 0.33526 0.15904 0.10935 0.2634 0.15739 0.11066 0.13421 0.10598 -0.025087 -0.027398 0.12185 0.11398 -0.26177 -0.034029 0.039485 0.007818 -0.14866 -0.073355 0.0087964 0.13353 0.07388 0.11027 0.045404 -0.014423 0.090464 0.20917 0.051107 0.11509 -0.078345 0.058867 0.14145 -0.15288 0.13952 0.080365 -0.12933 0.29423 -0.15176 -0.2672 -0.18568 -0.24739 0.013147 -0.063106 -0.079628 
six 0.030206 0.2304 -0.2357 -0.26144 -0.10952 0.034642 -0.17767 0.18706 0.072629 0.14199 -0.067033 0.078853 -0.081944 -0.059795 0.010994 0.037875 -0.13145 0.04252 0.04197 -0.030233 0.042249 0.09519 -0.15179 -0.049113 -0.096888 -0.1522 0.17224 0.039148 -0.14093 0.13022 -0.10413 0.09156 0.069939 -0.095133 -0.12409 -0.14461 0.071098 -0.22981 -0.11158 -0.016709 -0.0026787 -0.091749 0.08025 0.16345 0.13999 -0.1606 0.024308 -0.01204 -0.12574 0.021643 -0.12929 -0.21816 -0.14097 0.15869 -0.024422 0.030277 0.0086872 0.30105 0.14008 0.10235 0.24881 0.14882 0.11884 0.11673 0.11781 -0.0020757 -0.039661 0.11707 0.092248 -0.22099 -0.071382 0.034142 0.019411 -0.12348 -0.079894 0.023146 0.12097 0.090004 0.095379 0.035597 0.0039545 0.075918 0.20646 0.053634 0.082839 -0.075725 0.062679 0.12471 -0.15553 0.11294 0.077251 -0.13699 0.26615 -0.1206 -0.28396 -0.19526 -0.21954 -0.015977 -0.064029 -0.091878 
children 0.014563 0.24883 -0.2471 -0.30823 -0.15235 0.016611 -0.20201 0.25165 0.074466 0.16079 -0.13798 0.10636 -0.083715 -0.060028 0.0075304 0.033737 -0.1491 0.04702 0.06852 -0.02072 0.030788 0.11285 -0.16944 -0.092712 -0.12235 -0.18761 0.21342 0.057949 -0.14245 0.15318 -0.12166 0.12697 0.098875 -0.11741 -0.12839 -0.15988 0.10986 -0.26124 -0.15439 -0.012015 0.033811 -0.096028 0.093926 0.18164 0.17238 -0.19918 0.012859 -0.021549 -0.16953 0.049252 -0.13328 -0.24288 -0.17017 0.15181 -0.03181 0.051362 0.013629 0.35221 0.17964 0.12384 0.31059 0.17524 0.10357 0.15182 0.13888 -0.017671 -0.040037 0.13258 0.11175 -0.29267 -0.053488 0.042157 0.027714 -0.16698 -0.090983 0.015701 0.13145 0.085411 0.12083 0.052256 -0.027602 0.073068 0.22816 0.053354 0.12811 -0.091026 0.058442 0.16101 -0.17447 0.16789 0.07846 -0.14795 0.31494 -0.15611 -0.31046 -0.19046 -0.284 0.00098118 -0.071264 -0.064821 
property 0.016369 0.19735 -0.2112 -0.26854 -0.15142 0.029522 -0.16046 0.19344 0.06611 0.11764 -0.098861 0.084568 -0.073394 -0.07164 0.0082486 0.033194 -0.13994 0.058273 0.043989 -0.029818 0.023847 0.080347 -0.13627 -0.054636 -0.10319 -0.13873 0.19234 0.05555 -0.11204 0.13886 -0.088533 0.094638 0.10147 -0.10969 -0.10914 -0.1479 0.064744 -0.22215 -0.11832 -0.026356 0.038769 -0.086929 0.076796 0.15598 0.14144 -0.181 0.020658 -0.035242 -0.13589 0.032722 -0.11388 -0.2091 -0.13892 0.15464 -0.019357 0.04102 0.0062942 0.31038 0.1491 0.098734 0.26659 0.15258 0.086159 0.11285 0.10709 -0.0053133 -0.01879 0.10872 0.11078 -0.23996 -0.035743 0.045908 0.015156 -0.14155 -0.071176 0.010413 0.12445 0.070884 0.099344 0.048203 -0.0077317 0.077024 0.18613 0.032439 0.10358 -0.076102 0.065236 0.1256 -0.14518 0.13973 0.081264 -0.12831 0.26507 -0.14801 -0.27342 -0.17814 -0.25165 -0.015449 -0.041093 -0.092947 
movements 0.018527 0.21476 -0.21543 -0.2768 -0.14568 0.038789 -0.16645 0.19599 0.064462 0.13448 -0.087963 0.088514 -0.056076 -0.05099 0.012841 0.040327 -0.11682 0.04087 0.039979 -0.022546 0.03965 0.10776 -0.14827 -0.064749 -0.10133 -0.14168 0.17472 0.058581 -0.10787 0.13755 -0.10451 0.093459 0.091722 -0.10262 -0.12601 -0.14437 0.072042 -0.23225 -0.11148 -0.0015325 0.019138 -0.077888 0.073689 0.15194 0.14469 -0.17686 0.01795 -0.025748 -0.1386 0.030805 -0.12198 -0.20985 -0.14067 0.1443 -0.030177 0.053914 0.0035106 0.30345 0.13979 0.081948 0.26187 0.153 0.10015 0.13052 0.11415 -0.0079683 -0.028954 0.12156 0.077426 -0.24326 -0.02992 0.041133 0.01983 -0.15251 -0.087686 0.023505 0.11442 0.068903 0.099044 0.031412 -0.0085829 0.07805 0.19806 0.051624 0.1112 -0.067848 0.06945 0.13643 -0.16343 0.14428 0.071228 -0.11878 0.27256 -0.14189 -0.27526 -0.17246 -0.2332 -0.0097675 -0.04493 -0.090097 
use 0.018633 0.22933 -0.22871 -0.27701 -0.16956 0.036575 -0.18759 0.22294 0.058829 0.14332 -0.1107 0.10832 -0.082049 -0.063654 0.010477 0.047812 -0.14379 0.03851 0.053217 -0.023681 0.025006 0.10146 -0.16861 -0.073461 -0.096763 -0.16183 0.2086 0.068009 -0.12779 0.14113 -0.11215 0.11704 0.10049 -0.11374 -0.11545 -0.16134 0.085282 -0.2505 -0.12445 -0.013671 0.042883 -0.083481 0.10288 0.17059 0.1521 -0.19466 0.023931 -0.028092 -0.14629 0.030757 -0.13726 -0.2127 -0.16217 0.15526 -0.018547 0.032861 0.0145 0.33759 0.16963 0.10789 0.28162 0.1546 0.10928 0.1357 0.11461 -0.024991 -0.041491 0.12044 0.11615 -0.25987 -0.051462 0.045401 0.005578 -0.165 -0.081172 0.023597 0.14018 0.068035 0.11928 0.034577 -0.022878 0.10089 0.21956 0.049133 0.12011 -0.081239 0.083022 0.14985 -0.1745 0.1688 0.078305 -0.13015 0.29402 -0.1628 -0.30572 -0.17442 -0.28102 -0.01531 -0.045046 -0.083549 
language 0.021847 0.23729 -0.24673 -0.30647 -0.16863 0.037096 -0.21772 0.25309 0.065905 0.14692 -0.14141 0.098797 -0.079098 -0.056779 0.025908 0.055407 -0.14311 0.06347 0.042973 -0.038456 0.025349 0.11235 -0.17235 -0.097609 -0.11347 -0.18211 0.21523 0.06024 -0.15509 0.15336 -0.10985 0.12441 0.11407 -0.10564 -0.12826 -0.16282 0.091878 -0.27888 -0.14406 -0.025558 0.028844 -0.10866 0.092745 0.17493 0.16811 -0.19062 0.024655 -0.034861 -0.16011 0.024681 -0.14189 -0.24112 -0.17625 0.16564 -0.0249 0.041934 0.022753 0.36419 0.16871 0.10814 0.30891 0.17338 0.10771 0.14116 0.12581 -0.02975 -0.043114 0.11531 0.12909 -0.28052 -0.054283 0.049082 0.01213 -0.1667 -0.091958 -0.0010233 0.13816 0.080702 0.13001 0.050578 -0.020984 0.084963 0.22056 0.070852 0.12296 -0.10184 0.065588 0.15478 -0.18144 0.17898 0.08374 -0.13476 0.30119 -0.173 -0.31826 -0.1843 -0.29613 -0.013559 -0.052009 -0.089257 
ideas 0.022845 0.2094 -0.19256 -0.2599 -0.14735 0.033616 -0.15045 0.19511 0.046306 0.12433 -0.082696 0.09406 -0.059257 -0.055698 0.0074717 0.023382 -0.12398 0.030134 0.0622 -0.026863 0.016327 0.092292 -0.14052 -0.064686 -0.084546 -0.15347 0.16728 0.041287 -0.11505 0.11352 -0.10283 0.099563 0.077475 -0.1061 -0.10858 -0.14341 0.06623 -0.23965 -0.10927 -0.0081519 0.013763 -0.087918 0.079956 0.14022 0.15373 -0.17395 0.021046 -0.029529 -0.14113 0.015047 -0.12361 -0.18556 -0.13592 0.14464 -0.022976 0.035244 0.0015484 0.29515 0.14308 0.093009 0.2632 0.15705 0.090221 0.10092 0.10112 -0.0022122 -0.01815 0.10564 0.094343 -0.214 -0.020585 0.047168 0.025691 -0.13877 -0.063992 0.0077863 0.12285 0.059393 0.093958 0.03521 -0.0083761 0.067232 0.18602 0.042726 0.12163 -0.082656 0.064455 0.10594 -0.15339 0.13285 0.058829 -0.12256 0.2678 -0.13137 -0.26003 -0.17249 -0.23767 -0.00227 -0.058467 -0.071291 
post 0.022598 0.19513 -0.20577 -0.23494 -0.12299 0.0315 -0.15597 0.18639 0.065701 0.14127 -0.082947 0.077626 -0.085921 -0.064282 0.0085481 0.034512 -0.1255 0.03701 0.04354 -0.04162 0.018513 0.07711 -0.13485 -0.074141 -0.0951 -0.14161 0.17023 0.045949 -0.10326 0.13557 -0.086587 0.095527 0.08869 -0.099904 -0.096318 -0.12893 0.073115 -0.23901 -0.1185 -0.023964 0.015205 -0.0895 0.070615 0.14229 0.15853 -0.17034 0.015483 -0.028717 -0.13913 0.022722 -0.11484 -0.19208 -0.13788 0.13782 -0.0022753 0.034977 0.007464 0.29021 0.13309 0.091387 0.23124 0.14597 0.096209 0.11826 0.095677 -0.0099638 -0.034259 0.10141 0.083411 -0.22429 -0.043128 0.03727 0.030326 -0.14629 -0.079132 0.019879 0.11179 0.068319 0.10803 0.036214 -0.032048 0.08493 0.18761 0.049864 0.10666 -0.068617 0.07046 0.12391 -0.13737 0.10999 0.053335 -0.12825 0.25914 -0.13024 -0.24272 -0.16298 -0.22477 -0.01597 -0.065348 -0.066498 
them 0.026774 0.24845 -0.25503 -0.30757 -0.16329 0.028394 -0.20391 0.22768 0.068849 0.14824 -0.11995 0.10529 -0.083998 -0.06072 0.0037735 0.026132 -0.14188 0.052085 0.048413 -0.019708 0.024184 0.11154 -0.17201 -0.074928 -0.11037 -0.18883 0.2034 0.052539 -0.12505 0.14795 -0.10258 0.12537 0.096834 -0.11212 -0.13506 -0.16216 0.090796 -0.273 -0.14941 -0.017308 0.030557 -0.085576 0.092228 0.17952 0.18293 -0.19888 0.025591 -0.028233 -0.15481 0.022079 -0.13821 -0.24322 -0.1611 0.16257 -0.019231 0.047079 0.012424 0.36326 0.17332 0.10714 0.30384 0.17604 0.11148 0.15081 0.1266 -0.027816 -0.03582 0.12696 0.10963 -0.27642 -0.038142 0.040398 0.02148 -0.16347 -0.078573 0.0030986 0.11849 0.073706 0.13077 0.05907 -0.010229 0.086129 0.22626 0.056911 0.11975 -0.088 0.0577 0.15922 -0.18132 0.16684 0.091844 -0.1429 0.30727 -0.1769 -0.31177 -0.1945 -0.28954 -0.008228 -0.064227 -0.093461 
war 0.0077748 0.19237 -0.20652 -0.2358 -0.11889 0.045673 -0.16136 0.19119 0.054451 0.11768 -0.10035 0.069199 -0.059721 -0.050714 -0.0001055 0.032572 -0.12611 0.040978 0.051549 -0.022629 0.018146 0.10602 -0.13942 -0.056245 -0.076174 -0.14508 0.15833 0.038587 -0.095013 0.1323 -0.10323 0.10303 0.074965 -0.10576 -0.12333 -0.12538 0.079623 -0.238 -0.12786 -0.0026136 0.022029 -0.092336 0.068595 0.15364 0.13462 -0.16744 0.021733 -0.027675 -0.13639 0.00913 -0.10981 -0.19741 -0.14111 0.13907 -0.011194 0.038612 0.018656 0.30256 0.12869 0.082733 0.22814 0.15248 0.099541 0.13364 0.09106 -0.001473 -0.027849 0.11282 0.087247 -0.23006 -0.040994 0.030332 0.017169 -0.12675 -0.079203 0.0099492 0.12951 0.065029 0.086808 0.045414 -0.012278 0.06273 0.18831 0.068006 0.11318 -0.07576 0.065289 0.11405 -0.15405 0.1242 0.058258 -0.11755 0.26544 -0.13946 -0.25984 -0.14453 -0.22692 -0.017258 -0.051753 -0.077252 
anti 0.017379 0.2097 -0.21725 -0.26175 -0.13927 0.027663 -0.1714 0.22136 0.060438 0.13191 -0.096863 0.085756 -0.080279 -0.050804 0.0014215 0.030773 -0.12904 0.032811 0.039942 -0.028325 0.023602 0.11279 -0.15182 -0.065043 -0.094251 -0.15338 0.19546 0.058661 -0.10748 0.12956 -0.10598 0.099447 0.084376 -0.1159 -0.13347 -0.12999 0.081428 -0.25896 -0.12174 -0.023566 0.035394 -0.085328 0.075556 0.14893 0.14191 -0.19076 0.015798 -0.022849 -0.12949 0.029045 -0.12978 -0.21255 -0.14226 0.13659 -0.0098346 0.037287 -0.0040544 0.31843 0.15222 0.086829 0.27073 0.16598 0.10325 0.11598 0.10147 -0.0065453 -0.03891 0.11027 0.095137 -0.24557 -0.03303 0.027641 0.011745 -0.14981 -0.080489 0.02716 0.13168 0.074639 0.098822 0.038794 -0.012839 0.092777 0.19661 0.041268 0.12444 -0.089395 0.062465 0.12553 -0.15551 0.13708 0.069937 -0.11276 0.28432 -0.15228 -0.26595 -0.17151 -0.24809 -0.0080228 -0.047976 -0.085055 
but 0.029922 0.22888 -0.22925 -0.28706 -0.15063 0.024914 -0.1681 0.22801 0.067561 0.1514 -0.11412 0.079521 -0.084943 -0.073504 0.010595 0.042993 -0.14747 0.062115 0.057052 -0.02804 0.028912 0.10286 -0.14862 -0.069665 -0.10891 -0.15772 0.20085 0.063374 -0.11035 0.13634 -0.10775 0.10966 0.089046 -0.11363 -0.11754 -0.15378 0.094404 -0.25284 -0.12703 -0.024991 0.02901 -0.10529 0.0854 0.15317 0.15391 -0.19886 0.016099 -0.022858 -0.14372 0.025183 -0.13458 -0.21452 -0.15887 0.13548 -0.016664 0.044313 0.016959 0.33949 0.15827 0.086262 0.26958 0.16237 0.10349 0.13387 0.12632 -0.002406 -0.041871 0.12254 0.093815 -0.25469 -0.029888 0.033745 0.0069299 -0.14222 -0.092019 0.019127 0.13846 0.076891 0.11815 0.042415 -8.8685e-05 0.074132 0.19811 0.05214 0.11695 -0.091115 0.0596 0.14924 -0.16636 0.14562 0.075903 -0.13548 0.28781 -0.15413 -0.29005 -0.17746 -0.2507 0.0049382 -0.0576 -0.087418 
groups 0.0081768 0.20275 -0.21318 -0.25903 -0.15003 0.034036 -0.16747 0.20316 0.064094 0.13787 -0.11208 0.090235 -0.055397 -0.056493 0.013518 0.038371 -0.12955 0.030035 0.060615 -0.037547 0.0086106 0.11321 -0.13421 -0.068985 -0.1012 -0.13533 0.16627 0.059401 -0.10426 0.13569 -0.076206 0.095698 0.089423 -0.09314 -0.11127 -0.13728 0.072015 -0.22962 -0.12525 -0.01184 0.029168 -0.099083 0.072446 0.14922 0.13917 -0.19743 0.022588 -0.021436 -0.14276 0.013164 -0.12847 -0.20113 -0.14961 0.14637 -0.031164 0.048459 0.027772 0.30491 0.12651 0.072586 0.24785 0.14957 0.086304 0.11805 0.11465 -0.023197 -0.041952 0.10671 0.087587 -0.22265 -0.04272 0.01637 0.027978 -0.16179 -0.081301 0.0069858 0.13695 0.078492 0.10975 0.053905 -0.0028466 0.073597 0.17445 0.044891 0.1198 -0.072693 0.054478 0.12593 -0.15805 0.14061 0.078529 -0.12984 0.26714 -0.14009 -0.27344 -0.15371 -0.24026 -0.011299 -0.044726 -0.075111 
seven 0.031676 0.20939 -0.20954 -0.25007 -0.11834 0.014858 -0.17914 0.19187 0.081844 0.14727 -0.075623 0.057988 -0.077122 -0.073476 -0.0068979 0.03738 -0.13966 0.042883 0.043714 -0.016897 0.028311 0.089852 -0.1358 -0.053625 -0.075441 -0.14459 0.17321 0.037573 -0.127 0.12684 -0.1027 0.092732 0.065645 -0.08741 -0.13314 -0.15316 0.060911 -0.22529 -0.11217 -0.021702 0.0010865 -0.10264 0.071913 0.14497 0.1457 -0.15631 0.037079 -0.020623 -0.12236 0.015571 -0.106 -0.2088 -0.12396 0.15305 -0.023046 0.046267 0.0042914 0.31487 0.13507 0.092276 0.24719 0.15633 0.097443 0.12474 0.11649 -0.012851 -0.0335 0.11346 0.085088 -0.222 -0.0651 0.03146 -0.008436 -0.1265 -0.072199 0.018307 0.12465 0.065444 0.083103 0.021911 -0.0038943 0.07457 0.19594 0.035402 0.099817 -0.085414 0.056556 0.12435 -0.15191 0.12259 0.096139 -0.13991 0.27663 -0.13887 -0.27622 -0.16654 -0.22144 -0.0041425 -0.052457 -0.085676 
term 0.023104 0.20661 -0.23263 -0.27578 -0.15239 0.017091 -0.17903 0.2213 0.057189 0.13461 -0.089888 0.094439 -0.085962 -0.063423 -0.00046733 0.035898 -0.14779 0.050163 0.05654 -0.025655 0.031285 0.10735 -0.14788 -0.082031 -0.088073 -0.15416 0.19369 0.053839 -0.10437 0.14056 -0.097671 0.1063 0.081779 -0.10128 -0.1193 -0.14519 0.077415 -0.24278 -0.11691 -0.015688 0.031972 -0.10051 0.074159 0.15582 0.15466 -0.17815 0.025394 -0.022921 -0.13157 0.035982 -0.12715 -0.20055 -0.15752 0.15405 -0.020586 0.048637 0.012222 0.3176 0.15629 0.089265 0.27606 0.16137 0.11171 0.12144 0.11059 -0.0035553 -0.032257 0.11924 0.082126 -0.24963 -0.060285 0.02736 0.00028601 -0.15004 -0.076942 0.027576 0.12505 0.07111 0.11299 0.026588 -0.024102 0.088566 0.19787 0.050699 0.12665 -0.091551 0.059997 0.13231 -0.15261 0.13449 0.068659 -0.12496 0.2847 -0.15833 -0.27676 -0.16437 -0.23808 -0.0066612 -0.068495 -0.075421 
anarchy 0.021993 0.22021 -0.22043 -0.27328 -0.14805 0.032343 -0.18292 0.20425 0.060913 0.15405 -0.10385 0.080648 -0.077709 -0.066867 0.012806 0.03951 -0.12764 0.048824 0.044238 -0.035106 0.0096088 0.098756 -0.14288 -0.064608 -0.08813 -0.17076 0.18135 0.055534 -0.11962 0.13217 -0.10156 0.11391 0.087587 -0.11049 -0.12606 -0.14177 0.0857 -0.23691 -0.1294 -0.0077441 0.02995 -0.083576 0.084318 0.16583 0.15475 -0.17146 0.011911 -0.022549 -0.14561 0.021522 -0.1117 -0.20137 -0.14162 0.13537 -0.034659 0.045492 0.0023663 0.31617 0.14838 0.10507 0.26272 0.14233 0.1006 0.12214 0.10756 -0.0060445 -0.032003 0.11886 0.093279 -0.2463 -0.040856 0.03923 0.020209 -0.14166 -0.082068 0.0078735 0.11982 0.067532 0.10442 0.045718 -0.0099962 0.082866 0.19368 0.05229 0.10315 -0.074819 0.052368 0.12979 -0.1459 0.13891 0.072906 -0.12343 0.29433 -0.14694 -0.26603 -0.16197 -0.23602 0.0051459 -0.05778 -0.078845 
against 0.028095 0.20572 -0.2164 -0.25108 -0.14667 0.034548 -0.16855 0.2015 0.054541 0.12888 -0.10446 0.087179 -0.056771 -0.057672 0.0080634 0.034448 -0.11479 0.03959 0.055981 -0.036392 0.022727 0.095611 -0.13933 -0.087938 -0.098253 -0.14107 0.15622 0.046423 -0.09017 0.11976 -0.10308 0.10247 0.10016 -0.093079 -0.12055 -0.13293 0.081942 -0.23335 -0.10917 -0.026815 0.041792 -0.091216 0.088403 0.15456 0.15685 -0.16453 0.024377 -0.018983 -0.13081 0.029157 -0.10714 -0.21392 -0.13763 0.14122 -0.014787 0.027714 0.0043953 0.29712 0.1358 0.099598 0.25784 0.14461 0.096751 0.11459 0.1065 -0.0093664 -0.027296 0.11423 0.075643 -0.22645 -0.033816 0.038011 0.0085689 -0.12923 -0.066818 0.010085 0.11996 0.051335 0.08621 0.028038 -0.022341 0.068594 0.18775 0.043179 0.10816 -0.083114 0.056704 0.10897 -0.13978 0.13468 0.061484 -0.12747 0.27232 -0.14536 -0.27372 -0.17422 -0.24893 -0.010943 -0.052454 -0.085139 
however 0.015395 0.22929 -0.22419 -0.2644 -0.1438 0.02852 -0.18892 0.2192 0.077419 0.14329 -0.10313 0.10513 -0.076925 -0.060025 0.026855 0.036125 -0.12808 0.057087 0.062351 -0.016896 0.018035 0.09426 -0.14976 -0.075597 -0.096266 -0.16329 0.18077 0.062748 -0.11386 0.14945 -0.099482 0.13083 0.09503 -0.10258 -0.11528 -0.15171 0.085265 -0.25539 -0.13333 -0.010786 0.016612 -0.10424 0.075098 0.15452 0.16082 -0.19837 0.024294 -0.0093302 -0.15918 0.030956 -0.11029 -0.20677 -0.14533 0.14535 -0.033554 0.036036 0.021172 0.33112 0.15944 0.096835 0.29623 0.16741 0.10005 0.13849 0.11142 -0.019437 -0.029162 0.12102 0.11119 -0.27048 -0.04936 0.037256 0.02044 -0.15204 -0.087528 0.015744 0.12694 0.056418 0.11257 0.050039 -0.022796 0.075279 0.21017 0.043815 0.11224 -0.10239 0.072271 0.15346 -0.16368 0.13437 0.088225 -0.14799 0.30472 -0.13988 -0.29175 -0.16394 -0.25695 -0.00016168 -0.04569 -0.088658 
form 0.025434 0.22181 -0.22104 -0.26714 -0.1498 0.023336 -0.17597 0.20494 0.062157 0.12884 -0.10805 0.083979 -0.064456 -0.052183 0.015287 0.018827 -0.13338 0.044782 0.047599 -0.020211 0.013464 0.09974 -0.14339 -0.064939 -0.10668 -0.15202 0.18665 0.043752 -0.10759 0.14253 -0.10586 0.11039 0.10273 -0.10361 -0.11923 -0.13982 0.070996 -0.243 -0.11357 -0.015298 0.028098 -0.091793 0.080349 0.14197 0.15819 -0.18033 0.0080452 -0.031064 -0.142 0.033192 -0.096672 -0.20095 -0.13636 0.12993 -0.023129 0.034538 0.016655 0.30104 0.13858 0.074631 0.25241 0.15424 0.078941 0.1221 0.10391 -0.016778 -0.031249 0.10261 0.094661 -0.24564 -0.044084 0.030402 0.0058577 -0.16101 -0.072351 0.010536 0.10378 0.072308 0.095571 0.032618 -0.018708 0.084498 0.19704 0.056999 0.11332 -0.068154 0.052484 0.11977 -0.14463 0.15352 0.081011 -0.12902 0.27237 -0.13332 -0.26364 -0.16479 -0.25156 -0.019416 -0.061078 -0.075398 
proudhon 0.024116 0.22114 -0.22593 -0.26649 -0.14976 0.025324 -0.16706 0.20515 0.055758 0.13999 -0.090149 0.085472 -0.073962 -0.076261 0.013246 0.024511 -0.13931 0.054728 0.060864 -0.021896 0.029074 0.087688 -0.14837 -0.075104 -0.10446 -0.14234 0.17808 0.050746 -0.12247 0.13567 -0.10881 0.11652 0.098692 -0.11189 -0.1364 -0.15836 0.080362 -0.25267 -0.12281 -0.011431 0.030773 -0.10197 0.076343 0.15269 0.15945 -0.18368 0.0093505 -0.038713 -0.14871 0.018565 -0.11125 -0.22174 -0.14144 0.16038 -0.016021 0.033561 0.012929 0.31326 0.14603 0.083459 0.2649 0.15839 0.10532 0.12926 0.10467 -0.0012336 -0.02445 0.12243 0.098905 -0.24148 -0.054261 0.034293 0.02896 -0.14062 -0.08224 0.018485 0.12165 0.066344 0.11614 0.043273 -0.0093824 0.082716 0.20384 0.032492 0.11674 -0.078873 0.071535 0.12705 -0.15938 0.13362 0.089439 -0.12814 0.28771 -0.1515 -0.26988 -0.17891 -0.25862 -0.0074376 -0.063929 -0.089173 
authoritarian 0.04004 0.20119 -0.19998 -0.24109 -0.1425 0.025234 -0.17802 0.21458 0.053982 0.14437 -0.10986 0.081401 -0.062383 -0.051741 -0.0046687 0.030001 -0.11952 0.039455 0.062802 -0.046183 0.01586 0.10563 -0.15325 -0.054118 -0.091161 -0.1433 0.16931 0.0499 -0.12358 0.12574 -0.10613 0.092195 0.088911 -0.11939 -0.12379 -0.14472 0.082016 -0.24522 -0.12843 -0.0050929 0.011777 -0.093842 0.08449 0.15005 0.1548 -0.17856 0.029669 -0.035923 -0.13581 0.033873 -0.11372 -0.19175 -0.15365 0.14139 -0.017316 0.045459 0.0023569 0.30107 0.1473 0.092024 0.25579 0.15509 0.087187 0.12002 0.1106 -0.016834 -0.034262 0.10528 0.10207 -0.22775 -0.053815 0.031314 0.028398 -0.14313 -0.085618 0.013152 0.13459 0.067516 0.11134 0.027081 -0.0014184 0.071432 0.1926 0.051792 0.1024 -0.075706 0.05018 0.11605 -0.15073 0.12555 0.058344 -0.12634 0.2714 -0.13761 -0.24707 -0.16394 -0.22768 -0.0055585 -0.074669 -0.084872 
who 0.032503 0.22883 -0.23692 -0.27495 -0.15461 0.030796 -0.19186 0.21526 0.07171 0.14155 -0.10853 0.077725 -0.067924 -0.056075 0.011092 0.035167 -0.12815 0.059193 0.038617 -0.029679 0.025783 0.096188 -0.1529 -0.076239 -0.1125 -0.16197 0.19762 0.063362 -0.11191 0.13292 -0.098723 0.11927 0.11035 -0.1162 -0.13765 -0.15888 0.078449 -0.24603 -0.13876 -0.022336 0.034279 -0.10837 0.091906 0.15614 0.16546 -0.19023 0.02673 -0.022034 -0.15518 0.028706 -0.12373 -0.21563 -0.14941 0.15077 -0.026457 0.034403 -0.0024621 0.32819 0.15128 0.10071 0.26827 0.16118 0.10946 0.1308 0.10796 -0.020121 -0.030849 0.10213 0.10491 -0.27815 -0.050392 0.024018 0.022986 -0.16648 -0.078686 0.007464 0.12111 0.064928 0.10251 0.044927 -0.0033721 0.09369 0.20961 0.057599 0.11795 -0.092575 0.05598 0.15253 -0.17179 0.16435 0.067547 -0.13065 0.29551 -0.15359 -0.29141 -0.16413 -0.25804 0.0092057 -0.061225 -0.09203 
capitalism 0.0085956 0.19525 -0.21585 -0.25212 -0.14544 0.02979 -0.16635 0.20265 0.047679 0.13447 -0.09357 0.073899 -0.080294 -0.07408 0.0078611 0.024826 -0.11836 0.036084 0.050194 -0.041323 0.013679 0.086993 -0.14236 -0.068973 -0.093406 -0.1577 0.17149 0.054133 -0.11975 0.12687 -0.090167 0.10228 0.094419 -0.10479 -0.11712 -0.13508 0.083172 -0.23178 -0.11995 -0.021476 0.022252 -0.083609 0.062898 0.14082 0.14613 -0.17339 0.025841 -0.019881 -0.14284 0.018559 -0.12237 -0.21074 -0.12722 0.14821 0.00076131 0.052004 0.0068001 0.2938 0.1386 0.094861 0.24811 0.15109 0.098186 0.12559 0.097208 -0.016083 -0.026311 0.10783 0.09302 -0.24211 -0.042164 0.036841 0.012885 -0.14983 -0.081864 0.020198 0.12753 0.071807 0.094895 0.038985 -0.0026387 0.068641 0.18761 0.058069 0.10688 -0.076099 0.050086 0.1255 -0.14538 0.12114 0.053398 -0.13016 0.26738 -0.14326 -0.26104 -0.15213 -0.23552 -0.017859 -0.06653 -0.079056 
child 0.019419 0.2231 -0.24316 -0.28919 -0.13463 0.019443 -0.16896 0.21929 0.064497 0.12852 -0.099699 0.088864 -0.075386 -0.05666 0.0010347 0.022366 -0.13496 0.026113 0.049114 -0.019117 0.048031 0.10481 -0.16266 -0.0719 -0.083929 -0.16466 0.17672 0.030891 -0.12009 0.1604 -0.10785 0.13413 0.076769 -0.10383 -0.12461 -0.15789 0.087763 -0.25959 -0.12747 -0.0067735 0.013409 -0.095775 0.08391 0.16189 0.14754 -0.1982 0.021781 -0.023564 -0.15699 0.027625 -0.12637 -0.2263 -0.15392 0.15134 -0.00018551 0.0431 0.013464 0.34457 0.16791 0.11972 0.29844 0.17451 0.095551 0.13931 0.11403 -0.025252 -0.029226 0.10822 0.10921 -0.26014 -0.059415 0.046617 0.015735 -0.15256 -0.072448 0.018437 0.12102 0.066238 0.10617 0.043051 -0.026181 0.081035 0.20307 0.051392 0.11279 -0.088482 0.074826 0.13104 -0.16846 0.14907 0.088005 -0.12994 0.31284 -0.14275 -0.29786 -0.17609 -0.25773 -0.020623 -0.055201 -0.099211 
were 0.026956 0.20734 -0.19057 -0.25639 -0.13901 0.027668 -0.15473 0.20083 0.055027 0.12777 -0.078732 0.066347 -0.066993 -0.069987 0.0031102 0.040703 -0.13192 0.050657 0.042516 -0.025453 0.026446 0.081263 -0.12413 -0.054943 -0.085128 -0.13596 0.1563 0.053371 -0.11442 0.12848 -0.10235 0.089851 0.078414 -0.098171 -0.1175 -0.11923 0.075012 -0.23288 -0.099781 -0.0047896 0.017107 -0.088836 0.084649 0.15196 0.14512 -0.15671 0.016688 -0.020346 -0.12117 0.030155 -0.10206 -0.1899 -0.11584 0.14283 -0.0048029 0.034823 0.0046887 0.29797 0.13616 0.090158 0.24144 0.13502 0.088928 0.11012 0.097663 -0.011544 -0.040619 0.11129 0.074683 -0.23522 -0.044307 0.024201 0.0017618 -0.13343 -0.077563 0.011992 0.1102 0.070429 0.10221 0.040689 -0.0086737 0.067281 0.19089 0.061851 0.10585 -0.073334 0.061281 0.12426 -0.13392 0.12711 0.072744 -0.1098 0.26754 -0.14423 -0.25944 -0.16529 -0.22565 -0.012006 -0.049621 -0.082014 
early 0.010071 0.2083 -0.21296 -0.25967 -0.12331 0.027264 -0.18227 0.2198 0.059537 0.12703 -0.10979 0.082706 -0.051221 -0.047643 0.0032949 0.028449 -0.13107 0.029925 0.058768 -0.035239 0.016051 0.08935 -0.14177 -0.061434 -0.11144 -0.15598 0.17184 0.046145 -0.12456 0.14699 -0.092906 0.11654 0.087434 -0.10117 -0.12208 -0.14991 0.081655 -0.23436 -0.13642 -0.0046814 0.01959 -0.098767 0.076761 0.16054 0.15423 -0.17663 0.019101 -0.031304 -0.15326 0.010529 -0.11769 -0.20737 -0.15226 0.13231 -0.013348 0.038796 0.018731 0.31447 0.15677 0.088557 0.26806 0.1586 0.1018 0.12801 0.1139 -0.012012 -0.034791 0.1199 0.076068 -0.25169 -0.033943 0.039806 0.018342 -0.13918 -0.075349 0.0020873 0.1141 0.069154 0.1072 0.032793 -0.014992 0.085604 0.17599 0.055843 0.10771 -0.080924 0.059798 0.14118 -0.15454 0.12987 0.07561 -0.13335 0.29022 -0.14833 -0.2872 -0.18014 -0.23833 -0.0060963 -0.043497 -0.073605 
there 0.012298 0.2295 -0.2246 -0.28144 -0.16041 0.041677 -0.18276 0.22063 0.074306 0.154 -0.11634 0.081253 -0.073716 -0.079381 0.026085 0.042532 -0.12488 0.035397 0.046931 -0.013803 0.031392 0.089606 -0.15182 -0.077455 -0.10546 -0.16173 0.19166 0.051679 -0.12015 0.14408 -0.095714 0.12057 0.090011 -0.105 -0.12121 -0.16446 0.085525 -0.24715 -0.13485 -0.027125 0.017303 -0.10426 0.081749 0.15886 0.14793 -0.17831 0.014246 -0.030878 -0.15188 0.036406 -0.13232 -0.21267 -0.14755 0.16078 -0.025574 0.0358 0.011173 0.32908 0.15678 0.10104 0.2617 0.15783 0.10847 0.12065 0.11693 -0.015718 -0.020438 0.10311 0.093591 -0.26484 -0.047637 0.044381 0.012006 -0.1564 -0.075411 0.015363 0.13016 0.061579 0.111 0.033676 -0.012375 0.089161 0.20257 0.047557 0.12479 -0.084312 0.07038 0.13645 -0.16901 0.15785 0.071855 -0.13075 0.28893 -0.13185 -0.28343 -0.1694 -0.25885 -0.0073789 -0.065363 -0.071344 
violence 0.023885 0.23024 -0.21965 -0.26545 -0.14612 0.029737 -0.19995 0.22838 0.06161 0.14742 -0.12018 0.089509 -0.067153 -0.059261 -0.010832 0.019922 -0.1322 0.051194 0.044002 -0.023265 0.01432 0.094054 -0.14993 -0.079018 -0.099453 -0.15638 0.20067 0.049301 -0.12749 0.15255 -0.10772 0.11136 0.10432 -0.12026 -0.11893 -0.14883 0.076945 -0.25764 -0.13746 -0.027382 0.029476 -0.095291 0.084117 0.15944 0.16673 -0.19346 0.02262 -0.034754 -0.144 0.023925 -0.13313 -0.21963 -0.16139 0.15781 -0.02679 0.048372 0.01515 0.33994 0.13868 0.088424 0.27576 0.16271 0.099745 0.13153 0.12743 -0.0061787 -0.032875 0.10473 0.11416 -0.25479 -0.036449 0.037497 0.013158 -0.15973 -0.08418 0.029404 0.12476 0.075232 0.10364 0.04618 -0.023093 0.089264 0.22219 0.065779 0.12968 -0.093417 0.071401 0.14213 -0.16567 0.14085 0.081712 -0.12399 0.29568 -0.15258 -0.28461 -0.18083 -0.25594 -0.019089 -0.060842 -0.078764 
others 0.010919 0.21836 -0.24115 -0.26729 -0.14374 0.04367 -0.18387 0.2357 0.07095 0.15041 -0.10993 0.10008 -0.079964 -0.057077 0.011023 0.034114 -0.13256 0.060903 0.045962 -0.038167 0.0071092 0.11317 -0.14845 -0.063762 -0.10948 -0.17227 0.18808 0.059547 -0.11867 0.14548 -0.10748 0.12629 0.09033 -0.11627 -0.12767 -0.14306 0.082548 -0.26239 -0.14155 -0.0014424 0.028629 -0.091359 0.089147 0.15654 0.1678 -0.20341 0.025398 -0.040164 -0.13755 0.040013 -0.11782 -0.2084 -0.15694 0.16914 -0.029759 0.032919 0.0034473 0.32756 0.14454 0.090269 0.26501 0.15392 0.11205 0.13108 0.11968 -0.024371 -0.030127 0.11976 0.1018 -0.26678 -0.037288 0.034509 0.016783 -0.1372 -0.067976 0.0009336 0.13394 0.06392 0.11525 0.050199 -0.017588 0.091556 0.20873 0.057337 0.11723 -0.084869 0.048215 0.12882 -0.16982 0.14849 0.086674 -0.15204 0.3111 -0.14008 -0.27929 -0.1824 -0.26735 -0.016729 -0.057109 -0.078349 
all 0.030309 0.22111 -0.21209 -0.27039 -0.15098 0.025331 -0.18972 0.2186 0.068839 0.14016 -0.091436 0.087574 -0.09029 -0.070852 0.013045 0.043579 -0.14221 0.038497 0.049989 -0.038401 0.033361 0.1081 -0.15679 -0.068391 -0.092571 -0.16213 0.19194 0.049148 -0.1351 0.15561 -0.11121 0.11359 0.073333 -0.11531 -0.12871 -0.16251 0.075939 -0.24056 -0.11971 -0.017099 0.020535 -0.095231 0.087879 0.15431 0.14862 -0.17297 0.029554 -0.027715 -0.1278 0.02884 -0.13373 -0.22132 -0.14704 0.15655 -0.020607 0.038879 0.013522 0.31897 0.15079 0.09237 0.2809 0.16246 0.10029 0.13075 0.1068 -0.010049 -0.027695 0.11653 0.10614 -0.25006 -0.052484 0.048098 0.018489 -0.15773 -0.078916 0.011607 0.11859 0.071423 0.11497 0.034898 -0.015819 0.068719 0.20167 0.06889 0.11759 -0.089672 0.064264 0.14615 -0.14791 0.13885 0.071918 -0.13581 0.27626 -0.14781 -0.28665 -0.18641 -0.25387 -0.010154 -0.064164 -0.083951 
workers 0.023026 0.22408 -0.21917 -0.2756 -0.14724 0.029632 -0.18253 0.21586 0.067724 0.14027 -0.10121 0.09253 -0.071711 -0.067435 0.00085084 0.036788 -0.13281 0.035666 0.036948 -0.031652 0.029134 0.090607 -0.16184 -0.073502 -0.09009 -0.16334 0.17668 0.043402 -0.10457 0.14781 -0.10315 0.10987 0.10213 -0.10495 -0.11895 -0.1491 0.070883 -0.25549 -0.12965 -0.028995 0.032331 -0.10392 0.089134 0.14679 0.16262 -0.17899 0.028758 -0.018873 -0.131 0.02021 -0.11769 -0.21196 -0.15413 0.14653 -0.023656 0.050692 0.018341 0.33368 0.14716 0.08326 0.25972 0.15338 0.11564 0.13345 0.12162 -0.011156 -0.033518 0.11328 0.10319 -0.24674 -0.048174 0.041071 0.013444 -0.1512 -0.076824 0.022964 0.12523 0.075836 0.10029 0.0368 0.0048369 0.074706 0.20682 0.049668 0.098138 -0.075995 0.070352 0.13675 -0.167 0.13674 0.088667 -0.14036 0.30006 -0.16109 -0.28105 -0.17004 -0.2389 -0.014571 -0.058054 -0.086401 
do 0.025632 0.24197 -0.24159 -0.28645 -0.15739 0.038552 -0.2015 0.23365 0.043718 0.16036 -0.13367 0.089513 -0.078506 -0.056953 0.021194 0.036184 -0.14334 0.051548 0.043592 -0.019526 0.017098 0.10079 -0.1672 -0.079645 -0.1175 -0.17788 0.2166 0.043629 -0.1473 0.14475 -0.1036 0.13073 0.09209 -0.11625 -0.13243 -0.14761 0.097341 -0.26643 -0.12449 -0.017942 0.034846 -0.082209 0.087144 0.16559 0.16477 -0.19112 0.021011 -0.026005 -0.15241 0.02572 -0.12021 -0.23996 -0.15447 0.16001 -0.014982 0.047178 0.015157 0.33718 0.17078 0.10384 0.28783 0.16584 0.10192 0.1364 0.1269 -0.026204 -0.040312 0.13441 0.11647 -0.26612 -0.042409 0.046797 0.014911 -0.17075 -0.090418 0.0079238 0.12358 0.06358 0.12521 0.052904 -0.011367 0.091616 0.21855 0.051476 0.1247 -0.079755 0.058612 0.14822 -0.17173 0.14441 0.07625 -0.13965 0.3075 -0.16694 -0.304 -0.18811 -0.27439 -0.014316 -0.067889 -0.088646 
these 0.014399 0.22697 -0.2412 -0.28368 -0.16017 0.03168 -0.17569 0.22781 0.057591 0.14501 -0.11037 0.10716 -0.069402 -0.063313 0.011529 0.025463 -0.13312 0.044337 0.050811 -0.031034 0.016315 0.10391 -0.16272 -0.074451 -0.11913 -0.1788 0.2021 0.039146 -0.13004 0.14628 -0.11833 0.11916 0.081116 -0.11586 -0.12409 -0.16864 0.085228 -0.26592 -0.13321 -0.024046 0.025159 -0.083895 0.076339 0.16668 0.16005 -0.19286 0.038306 -0.029071 -0.14632 0.031879 -0.13285 -0.21605 -0.1649 0.16093 -0.033747 0.044436 0.012666 0.35472 0.16311 0.12013 0.28888 0.17721 0.10021 0.13627 0.12063 -0.019725 -0.034852 0.1283 0.12416 -0.28061 -0.036062 0.030452 0.023362 -0.15474 -0.093824 0.010775 0.13044 0.070571 0.13086 0.060805 -0.023487 0.086731 0.20298 0.07453 0.1357 -0.083643 0.055403 0.14921 -0.1731 0.16113 0.098804 -0.14346 0.313 -0.16099 -0.29857 -0.17653 -0.2666 -0.019703 -0.059097 -0.099238 
cnt 0.021866 0.21316 -0.19421 -0.24432 -0.11143 0.031641 -0.15633 0.19342 0.066082 0.12061 -0.097125 0.0757 -0.054667 -0.068169 -0.0017511 0.029484 -0.11157 0.051725 0.044388 -0.044771 0.026726 0.090869 -0.14401 -0.066677 -0.075574 -0.141 0.1711 0.032603 -0.097586 0.13033 -0.095119 0.094425 0.083177 -0.091454 -0.12428 -0.13284 0.074814 -0.21663 -0.11715 -0.025241 0.015726 -0.084676 0.088219 0.13704 0.13921 -0.1657 0.0072322 -0.018725 -0.12223 0.026668 -0.10528 -0.19038 -0.1174 0.13322 -0.0073056 0.03302 0.014423 0.2996 0.14838 0.087229 0.23898 0.14716 0.089624 0.1152 0.095764 -0.01773 -0.024962 0.10741 0.085533 -0.23419 -0.048648 0.041409 0.0033156 -0.13779 -0.082512 0.015598 0.11305 0.069843 0.09929 0.022934 0.0015912 0.072379 0.17413 0.056269 0.094959 -0.08584 0.061764 0.12728 -0.14005 0.13018 0.066995 -0.11975 0.25868 -0.1311 -0.24633 -0.15194 -0.20759 0.0030655 -0.056762 -0.091142 
been 0.02741 0.22428 -0.20948 -0.26578 -0.15377 0.022378 -0.18004 0.21254 0.071678 0.14219 -0.10211 0.083665 -0.071492 -0.065146 0.0031991 0.024079 -0.13975 0.03774 0.058302 -0.013395 0.027457 0.097216 -0.1529 -0.077255 -0.10249 -0.14984 0.19436 0.053868 -0.11232 0.13968 -0.092654 0.11398 0.095016 -0.10805 -0.11476 -0.15502 0.065213 -0.24696 -0.12514 -0.028012 0.019653 -0.096086 0.073675 0.14992 0.15806 -0.16766 0.014832 -0.03975 -0.1354 0.034038 -0.11634 -0.20352 -0.14658 0.13588 -0.0043133 0.057538 0.0044629 0.32542 0.14429 0.10037 0.25869 0.17459 0.10086 0.14311 0.12082 -0.00797 -0.026276 0.10641 0.10605 -0.23846 -0.037537 0.045921 0.02554 -0.13634 -0.086229 0.025653 0.12534 0.062375 0.11013 0.045276 -0.017827 0.068643 0.20283 0.054524 0.11254 -0.07604 0.050353 0.12479 -0.16312 0.14474 0.067458 -0.13324 0.28451 -0.14961 -0.27999 -0.17695 -0.25038 -0.017464 -0.068134 -0.08709 
within 0.0088293 0.25059 -0.23513 -0.30644 -0.16515 0.021331 -0.19119 0.22078 0.058486 0.13787 -0.1115 0.1057 -0.079128 -0.058588 -0.0024053 0.018357 -0.1514 0.033773 0.034522 -0.041258 0.012548 0.1089 -0.15559 -0.06732 -0.11479 -0.17311 0.19004 0.04493 -0.12986 0.1537 -0.10417 0.11379 0.087019 -0.11186 -0.1346 -0.1673 0.081489 -0.25085 -0.13864 0.0019712 0.039642 -0.1059 0.097203 0.168 0.15299 -0.19836 0.017987 -0.014615 -0.13291 0.0081677 -0.12888 -0.23535 -0.16425 0.15334 -0.0090281 0.055393 0.017052 0.35216 0.16367 0.098901 0.28366 0.15304 0.11369 0.12594 0.10554 -0.016365 -0.043977 0.11345 0.092958 -0.25539 -0.049251 0.017023 0.026283 -0.16708 -0.092182 0.019043 0.12679 0.073514 0.1194 0.064697 -0.00039117 0.089 0.21317 0.07048 0.10933 -0.084618 0.073687 0.14655 -0.18099 0.14186 0.080395 -0.13808 0.2894 -0.14718 -0.29157 -0.18716 -0.2707 0.0017958 -0.06027 -0.098134 
four 0.030933 0.23538 -0.22604 -0.28598 -0.14105 0.045014 -0.18802 0.21788 0.073579 0.15229 -0.091836 0.094563 -0.070728 -0.066789 0.0060973 0.025874 -0.14644 0.047188 0.063395 -0.042171 0.034451 0.096753 -0.15227 -0.072689 -0.09556 -0.16445 0.18841 0.046482 -0.13091 0.14595 -0.11606 0.11331 0.095371 -0.095898 -0.13494 -0.15395 0.081913 -0.25683 -0.13718 -0.020085 0.02529 -0.10081 0.083132 0.16494 0.16927 -0.19945 0.034265 -0.027787 -0.14866 0.037378 -0.12068 -0.21815 -0.1568 0.14661 -0.028148 0.029044 0.016666 0.34478 0.16238 0.10041 0.27398 0.17234 0.1029 0.14698 0.12621 -0.0071695 -0.024444 0.11634 0.10656 -0.2669 -0.045615 0.04273 0.0016178 -0.15125 -0.089176 0.01703 0.1233 0.082649 0.12003 0.0358 -0.015027 0.076836 0.21432 0.045695 0.1113 -0.078192 0.058319 0.13602 -0.16472 0.15264 0.09155 -0.13874 0.30268 -0.15366 -0.28601 -0.19232 -0.26017 0.0086129 -0.055506 -0.088596 
self 0.033419 0.22099 -0.22859 -0.27563 -0.13652 0.029548 -0.17255 0.21721 0.071693 0.14317 -0.099189 0.087951 -0.065013 -0.052984 0.0089226 0.03395 -0.13172 0.060687 0.06048 -0.027508 0.019176 0.097502 -0.15407 -0.076722 -0.10194 -0.16733 0.19835 0.047763 -0.11124 0.12766 -0.094594 0.10546 0.087068 -0.09353 -0.11253 -0.14436 0.074598 -0.25433 -0.12912 -0.016817 0.028565 -0.092925 0.077599 0.15314 0.14958 -0.1982 0.0062681 -0.018599 -0.16078 0.025799 -0.11701 -0.20755 -0.13403 0.15803 -0.016478 0.046674 0.016621 0.32152 0.15763 0.094867 0.26952 0.14741 0.10294 0.1443 0.11916 -0.032588 -0.022644 0.11405 0.10875 -0.26676 -0.040322 0.029717 0.019672 -0.14143 -0.07549 0.030082 0.12683 0.072986 0.10392 0.050277 -0.0049713 0.082601 0.19682 0.066471 0.12463 -0.084915 0.045716 0.14599 -0.16421 0.16026 0.092724 -0.14866 0.30895 -0.13223 -0.29757 -0.17898 -0.25239 -0.0049646 -0.060159 -0.075207 
so 0.022139 0.20732 -0.23416 -0.28335 -0.17794 0.016299 -0.18446 0.22538 0.072167 0.12632 -0.1052 0.095941 -0.06947 -0.060146 0.014599 0.043542 -0.13602 0.033839 0.0552 -0.01369 0.030336 0.11778 -0.14382 -0.053914 -0.10946 -0.15788 0.18354 0.049528 -0.11871 0.14675 -0.10878 0.10355 0.10163 -0.094558 -0.11338 -0.16198 0.082726 -0.26478 -0.11609 -0.015331 0.018026 -0.098734 0.093867 0.1494 0.15667 -0.17549 0.017971 -0.037727 -0.1382 0.045665 -0.13202 -0.22218 -0.16206 0.16393 -0.015671 0.052293 0.0098814 0.35226 0.14462 0.095519 0.28977 0.16055 0.10284 0.12065 0.12343 -0.019619 -0.0133 0.12322 0.1045 -0.2578 -0.043418 0.041949 0.025435 -0.14784 -0.07206 0.025203 0.12333 0.072844 0.10977 0.046806 -0.031199 0.088616 0.20635 0.054022 0.1187 -0.061233 0.072947 0.13755 -0.17224 0.13762 0.087037 -0.11788 0.27646 -0.14839 -0.28528 -0.17872 -0.27776 -0.02527 -0.053666 -0.073015 
although 0.031944 0.20596 -0.20756 -0.26147 -0.14348 0.035278 -0.1663 0.20576 0.054357 0.13771 -0.095497 0.089864 -0.066349 -0.054028 0.021283 0.03009 -0.12912 0.040656 0.042583 -0.033665 0.026777 0.096182 -0.15302 -0.064801 -0.092896 -0.1626 0.19151 0.05416 -0.11393 0.13633 -0.10367 0.10335 0.084556 -0.10062 -0.11591 -0.15301 0.093145 -0.24097 -0.13156 -0.007132 0.027825 -0.084072 0.077824 0.14143 0.15483 -0.19391 0.015632 -0.02516 -0.13487 0.02005 -0.11837 -0.21164 -0.14221 0.12855 -0.013368 0.032711 0.0095095 0.3143 0.14364 0.084026 0.26797 0.16517 0.10916 0.12559 0.10855 -0.012717 -0.035717 0.11025 0.10818 -0.2372 -0.031827 0.039494 0.0090482 -0.15252 -0.063302 0.01014 0.10959 0.073226 0.10734 0.046973 -0.0095855 0.06814 0.19791 0.061172 0.11091 -0.088432 0.067833 0.13537 -0.16367 0.13937 0.061138 -0.12097 0.27367 -0.14282 -0.2629 -0.16227 -0.25156 -0.0044003 -0.063231 -0.083576 
individuals 0.014154 0.23485 -0.24691 -0.28943 -0.162 0.036243 -0.20915 0.24001 0.067276 0.13222 -0.1255 0.10199 -0.083943 -0.050812 -0.0072724 0.04101 -0.1316 0.056315 0.05161 -0.022291 0.023512 0.11136 -0.15183 -0.086358 -0.10662 -0.17686 0.19338 0.063216 -0.12752 0.15394 -0.10245 0.13446 0.089582 -0.11058 -0.1375 -0.15296 0.088642 -0.26395 -0.1449 -0.014702 0.021201 -0.099646 0.088207 0.15668 0.17655 -0.18593 0.023907 -0.029008 -0.15913 0.032446 -0.12989 -0.21703 -0.16569 0.17209 -0.019566 0.037651 0.013459 0.35672 0.17923 0.094516 0.29145 0.16217 0.10825 0.13287 0.13575 -0.016985 -0.051672 0.13166 0.12515 -0.27805 -0.045522 0.03106 0.011153 -0.15693 -0.094275 0.02069 0.11977 0.06261 0.10418 0.044431 -0.026393 0.082965 0.22551 0.070835 0.10983 -0.076082 0.065257 0.15335 -0.18146 0.16839 0.096037 -0.14697 0.3064 -0.16346 -0.29259 -0.17558 -0.27991 -0.004338 -0.067916 -0.08956 
used 0.039692 0.21969 -0.23504 -0.28252 -0.15354 0.030857 -0.18582 0.22847 0.06261 0.14141 -0.11814 0.07996 -0.074574 -0.074447 0.010159 0.034104 -0.13724 0.043829 0.039955 -0.0245 0.029811 0.11219 -0.16129 -0.090281 -0.11482 -0.15992 0.20301 0.04938 -0.11105 0.13298 -0.10081 0.12173 0.088445 -0.10707 -0.12438 -0.14854 0.082741 -0.25337 -0.13514 -0.020001 0.021307 -0.11034 0.078601 0.16547 0.17249 -0.18459 0.018036 -0.024995 -0.15391 0.025983 -0.12503 -0.22512 -0.16227 0.1411 -0.0162 0.041036 0.0022576 0.33347 0.1471 0.08815 0.29094 0.16943 0.091829 0.13622 0.12602 -0.024458 -0.025387 0.12925 0.091209 -0.26455 -0.047256 0.031642 0.028666 -0.14247 -0.071986 0.017945 0.12595 0.076479 0.11652 0.034039 -0.027325 0.089659 0.19565 0.062032 0.11709 -0.082495 0.076202 0.14555 -0.15885 0.1458 0.061806 -0.13815 0.29212 -0.14995 -0.29899 -0.1746 -0.27433 -0.0081816 -0.073314 -0.085251 
bakunin 0.029673 0.22824 -0.21045 -0.26846 -0.14253 0.03707 -0.17183 0.21602 0.058731 0.13588 -0.08818 0.081254 -0.070152 -0.057099 -0.00096198 0.041749 -0.13005 0.05092 0.038817 -0.023355 0.0194 0.093165 -0.15484 -0.072315 -0.089205 -0.14372 0.18051 0.046033 -0.12661 0.13942 -0.10958 0.10278 0.089803 -0.10324 -0.11008 -0.14707 0.070372 -0.25087 -0.11816 -0.027712 0.018989 -0.1026 0.092938 0.14115 0.13972 -0.18609 0.02816 -0.029843 -0.14233 0.031628 -0.12808 -0.21468 -0.13392 0.15371 -0.017642 0.031116 0.0031879 0.30513 0.1412 0.090098 0.26663 0.15996 0.10521 0.12588 0.10862 -0.018324 -0.0281 0.11027 0.098679 -0.23363 -0.041326 0.038321 0.012015 -0.14886 -0.081783 0.007852 0.12068 0.077346 0.095284 0.035728 -0.0075075 0.085316 0.19632 0.038999 0.10792 -0.079442 0.065761 0.14285 -0.15669 0.13613 0.077743 -0.14058 0.28914 -0.1523 -0.27923 -0.17116 -0.24349 -0.0041793 -0.046236 -0.08591 
than 0.02183 0.21284 -0.22292 -0.27871 -0.14131 0.025295 -0.17081 0.21183 0.075908 0.13417 -0.095854 0.098842 -0.076529 -0.046004 -0.0078978 0.032418 -0.14417 0.045097 0.040838 -0.031592 0.029718 0.10421 -0.15767 -0.065093 -0.1004 -0.1691 0.1798 0.038575 -0.12178 0.14714 -0.1113 0.11402 0.081223 -0.11116 -0.13312 -0.15318 0.093561 -0.25023 -0.12984 -0.030657 0.037226 -0.091522 0.075908 0.15888 0.15581 -0.20003 0.020244 -0.029321 -0.14941 0.035423 -0.13442 -0.22487 -0.15098 0.17008 -0.030264 0.052226 0.022454 0.32898 0.15719 0.092396 0.27603 0.16451 0.11789 0.13575 0.11184 -0.004874 -0.029905 0.12685 0.10446 -0.24943 -0.062751 0.039626 0.0087008 -0.14706 -0.085157 0.012599 0.12772 0.067619 0.097323 0.051917 0.0014661 0.076694 0.20831 0.063831 0.12349 -0.085948 0.078675 0.12511 -0.14987 0.14096 0.082083 -0.14668 0.31168 -0.15535 -0.2901 -0.16471 -0.26324 0.0035281 -0.043781 -0.092755 
five 0.027047 0.21827 -0.2136 -0.26622 -0.14419 0.03924 -0.18728 0.20672 0.064849 0.14099 -0.093663 0.084505 -0.074452 -0.062976 0.022337 0.029922 -0.11854 0.037329 0.042655 -0.038726 0.033078 0.097283 -0.1587 -0.076144 -0.085487 -0.1517 0.17314 0.055313 -0.1238 0.13453 -0.09041 0.09739 0.071564 -0.10615 -0.13037 -0.15708 0.076453 -0.2434 -0.12796 -0.033787 -0.00036162 -0.086532 0.07062 0.15555 0.15188 -0.19058 0.030432 -0.024252 -0.13795 0.028285 -0.11999 -0.22445 -0.13131 0.14944 -0.0023279 0.05519 -0.0063282 0.3306 0.15567 0.097323 0.26542 0.13642 0.11536 0.13141 0.11206 -0.015288 -0.046387 0.11108 0.10228 -0.22796 -0.066445 0.043117 -0.00049047 -0.13273 -0.070993 0.0067636 0.13947 0.066097 0.099355 0.024974 0.0048506 0.092639 0.19784 0.050018 0.1029 -0.075999 0.053439 0.12901 -0.15772 0.14628 0.077099 -0.14662 0.2821 -0.13448 -0.30275 -0.18657 -0.2599 -0.0066332 -0.070478 -0.098342 
non 0.033479 0.23381 -0.22305 -0.27533 -0.14977 0.019287 -0.19551 0.21768 0.065915 0.15017 -0.11443 0.10405 -0.077396 -0.041247 0.0017104 0.027563 -0.13971 0.047962 0.061602 -0.038757 0.012459 0.11247 -0.16809 -0.074559 -0.11576 -0.16827 0.18712 0.051778 -0.14157 0.15589 -0.099226 0.12093 0.088359 -0.10442 -0.14203 -0.14392 0.093337 -0.25452 -0.15136 -0.017543 0.024143 -0.09688 0.075318 0.16765 0.17046 -0.19496 0.036086 -0.050047 -0.14126 0.033277 -0.14165 -0.2278 -0.17145 0.16475 -0.025199 0.046338 0.020419 0.3308 0.16493 0.097308 0.28478 0.15369 0.11199 0.14798 0.12923 -0.007828 -0.035544 0.11309 0.11714 -0.25853 -0.046482 0.038483 0.030979 -0.15058 -0.074517 0.014585 0.12558 0.078737 0.12265 0.054546 -0.0068799 0.079028 0.22264 0.051216 0.11541 -0.10017 0.068441 0.14845 -0.16835 0.14991 0.077014 -0.14796 0.29027 -0.15953 -0.28003 -0.17601 -0.26067 0.005151 -0.044336 -0.074584 
about 0.025719 0.20462 -0.22702 -0.26743 -0.14385 0.03118 -0.16816 0.20496 0.073184 0.13383 -0.1133 0.077149 -0.069144 -0.064038 0.028667 0.039166 -0.13334 0.042379 0.059585 -0.028446 0.015402 0.10879 -0.14568 -0.063458 -0.082754 -0.16046 0.16659 0.062845 -0.11273 0.12978 -0.09548 0.099435 0.093886 -0.09834 -0.12252 -0.15177 0.070737 -0.23383 -0.11443 -0.0090205 0.013407 -0.091315 0.076642 0.15735 0.15464 -0.1749 0.014261 -0.027997 -0.15388 0.01372 -0.11236 -0.20628 -0.15068 0.14341 -0.022593 0.034846 0.017404 0.30504 0.14218 0.095101 0.24871 0.16265 0.1085 0.11172 0.11879 -0.013629 -0.032778 0.10637 0.089045 -0.23851 -0.031557 0.024326 0.011903 -0.13939 -0.06993 0.0009011 0.11233 0.068389 0.096798 0.043239 -0.0080224 0.089546 0.19788 0.065212 0.10356 -0.088773 0.059244 0.1452 -0.1598 0.14114 0.071765 -0.14312 0.29369 -0.13675 -0.2551 -0.15956 -0.23121 -0.0087239 -0.065405 -0.067562 
different 0.031692 0.24421 -0.23432 -0.30215 -0.15965 0.018597 -0.20728 0.249 0.073349 0.15753 -0.11751 0.11104 -0.081511 -0.069469 0.019865 0.022699 -0.15795 0.050134 0.049857 -0.031421 0.018727 0.11114 -0.15931 -0.083798 -0.1109 -0.17545 0.20504 0.043011 -0.12825 0.14967 -0.11842 0.1382 0.10074 -0.12712 -0.1446 -0.16086 0.087231 -0.27622 -0.13504 -0.014124 0.023872 -0.10545 0.095654 0.17808 0.15679 -0.21152 0.020156 -0.03868 -0.15535 0.035448 -0.14531 -0.24211 -0.1565 0.1604 -0.018872 0.044813 0.01529 0.36235 0.17896 0.10813 0.2959 0.16899 0.11358 0.14657 0.12267 -0.03643 -0.038327 0.13578 0.10862 -0.27367 -0.047911 0.042823 0.008167 -0.16761 -0.070436 0.013902 0.14525 0.069022 0.12411 0.034518 -0.0049535 0.07508 0.218 0.073049 0.13346 -0.090719 0.064863 0.14071 -0.18054 0.17034 0.086496 -0.13638 0.32689 -0.17208 -0.3006 -0.17716 -0.27144 -0.0029978 -0.068502 -0.084901 
general 0.01718 0.21549 -0.21042 -0.28184 -0.15149 0.034847 -0.17265 0.21394 0.054541 0.14413 -0.10458 0.095827 -0.082422 -0.07728 0.0045205 0.048441 -0.13391 0.036768 0.04956 -0.03468 0.021333 0.08626 -0.15671 -0.082391 -0.09703 -0.1633 0.17821 0.038025 -0.12379 0.14457 -0.11586 0.11292 0.084424 -0.10248 -0.13848 -0.15342 0.085144 -0.24906 -0.12773 -0.014176 0.028423 -0.10328 0.082323 0.15154 0.15228 -0.1894 0.013951 -0.024653 -0.14658 0.032557 -0.11654 -0.22379 -0.15205 0.16321 -0.0084722 0.057031 0.0215 0.33123 0.161 0.096493 0.27098 0.14902 0.11058 0.13979 0.12061 -0.012123 -0.033442 0.10716 0.10141 -0.25167 -0.046931 0.042645 0.013372 -0.1403 -0.084689 0.0020115 0.12407 0.077212 0.1141 0.050946 -0.0067939 0.077848 0.20765 0.044896 0.10467 -0.075735 0.059357 0.13551 -0.15325 0.13534 0.081406 -0.13708 0.2923 -0.15608 -0.27217 -0.18674 -0.25154 -0.010334 -0.057388 -0.086529 
